{"learner":{"attributes":{"niter":"109"},"feature_names":[],"feature_types":[],"gradient_booster":{"model":{"gbtree_model_param":{"num_parallel_tree":"1","num_trees":"110","size_leaf_vector":"0"},"tree_info":[0,0,0,0,0,0,0,0,0,0,0,0,0,0,0,0,0,0,0,0,0,0,0,0,0,0,0,0,0,0,0,0,0,0,0,0,0,0,0,0,0,0,0,0,0,0,0,0,0,0,0,0,0,0,0,0,0,0,0,0,0,0,0,0,0,0,0,0,0,0,0,0,0,0,0,0,0,0,0,0,0,0,0,0,0,0,0,0,0,0,0,0,0,0,0,0,0,0,0,0,0,0,0,0,0,0,0,0,0,0],"trees":[{"base_weights":[4.4155845E-1,9.0909094E-1,-6.1538464E-1,1.12E0,-6.666667E-1,-1.2E0,1.3333334E-1,2.5E-1,1.3684211E0,8E-1,-6.666667E-1],"categories":[],"categories_nodes":[],"categories_segments":[],"categories_sizes":[],"default_left":[1,1,1,1,0,0,1,0,0,0,0],"id":0,"left_children":[1,3,5,7,-1,-1,9,-1,-1,-1,-1],"loss_changes":[1.0071928E1,5.3163643E0,3.0051281E0,2.3594742E0,0E0,0E0,2.5333333E0,0E0,0E0,0E0,0E0],"parents":[2147483647,0,0,1,1,2,2,3,3,6,6],"right_children":[2,4,6,8,-1,-1,10,-1,-1,-1,-1],"split_conditions":[2.7607733E-1,8.133092E-1,6.921255E-1,-4.3512988E-1,-5.5000003E-2,-9.900001E-2,1.9338295E-1,2.0625E-2,1.1289474E-1,6.600001E-2,-5.5000003E-2],"split_indices":[1,23,36,1,0,0,48,0,0,0,0],"split_type":[0,0,0,0,0,0,0,0,0,0,0],"sum_hessian":[1.825E1,1.275E1,5.5E0,1.15E1,1.25E0,2.75E0,2.75E0,3E0,8.5E0,1.5E0,1.25E0],"tree_param":{"num_deleted":"0","num_feature":"53","num_nodes":"11","size_leaf_vector":"0"}},{"base_weights":[7.0047784E-1,1.1209048E0,-4.2527622E-1,-5.8594376E-1,1.3762311E0,-1.0660661E0,6.772375E-1,1.514277E0,3.646364E-1,-1.8581325E-1,-1.3469791E0],"categories":[],"categories_nodes":[],"categories_segments":[],"categories_sizes":[],"default_left":[1,1,1,0,1,1,0,0,0,0,0],"id":1,"left_children":[1,3,5,-1,7,9,-1,-1,-1,-1,-1],"loss_changes":[1.0515015E1,7.6560383E0,5.3084793E0,0E0,1.3987999E0,8.61022E-1,0E0,0E0,0E0,0E0,0E0],"parents":[2147483647,0,0,1,1,2,2,4,4,5,5],"right_children":[2,4,6,-1,8,10,-1,-1,-1,-1,-1],"split_conditions":[5.116668E-1,-6.4372814E-1,5.386751E-1,-4.834036E-2,2.3843655E-1,-1.9192052E-1,5.5872098E-2,1.24927856E-1,3.0082503E-2,-1.5329594E-2,-1.1112578E-1],"split_indices":[47,50,22,0,0,19,0,0,0,0,0],"split_type":[0,0,0,0,0,0,0,0,0,0,0],"sum_hessian":[2.0209332E1,1.4717284E1,5.492047E0,1.7465783E0,1.2970705E1,3.4942303E0,1.9978164E0,1.0975965E1,1.994741E0,1.2472818E0,2.2469485E0],"tree_param":{"num_deleted":"0","num_feature":"53","num_nodes":"11","size_leaf_vector":"0"}},{"base_weights":[6.3177115E-1,1.3877817E0,-7.2978884E-1,1.21781595E-1,1.5202839E0,-1.4490057E0,1.19789176E-1,7.753729E-1,-5.1987255E-1],"categories":[],"categories_nodes":[],"categories_segments":[],"categories_sizes":[],"default_left":[1,1,1,0,0,0,1,0,0],"id":2,"left_children":[1,3,5,-1,-1,-1,7,-1,-1],"loss_changes":[1.9925533E1,1.8544064E0,4.582165E0,0E0,0E0,0E0,2.1775298E0,0E0,0E0],"parents":[2147483647,0,0,1,1,2,2,6,6],"right_children":[2,4,6,-1,-1,-1,8,-1,-1],"split_conditions":[1.7043492E-1,-3.530984E-1,5.462234E-1,1.0046982E-2,1.2542343E-1,-1.1954298E-1,1.9449347E-1,6.396827E-2,-4.2889487E-2],"split_indices":[34,34,31,0,0,0,35,0,0],"split_type":[0,0,0,0,0,0,0,0,0],"sum_hessian":[1.7373415E1,1.1158412E1,6.2150035E0,1.2390379E0,9.9193735E0,2.9836295E0,3.2313743E0,1.4910495E0,1.7403246E0],"tree_param":{"num_deleted":"0","num_feature":"53","num_nodes":"9","size_leaf_vector":"0"}},{"base_weights":[6.08973E-1,-9.1521716E-1,7.969764E-1,-2.9750618E-1,9.599031E-1,1.3424636E0,2.959449E-1],"categories":[],"categories_nodes":[],"categories_segments":[],"categories_sizes":[],"default_left":[1,0,1,0,1,0,0],"id":3,"left_children":[1,-1,3,-1,5,-1,-1],"loss_changes":[6.6567473E0,0E0,3.6644373E0,0E0,3.852107E0,0E0,0E0],"parents":[2147483647,0,0,2,2,4,4],"right_children":[2,-1,4,-1,6,-1,-1],"split_conditions":[-3.635407E-1,-7.550542E-2,-6.919834E-1,-2.4544261E-2,1.573664E-1,1.1075325E-1,2.4415456E-2],"split_indices":[41,0,14,0,45,0,0],"split_type":[0,0,0,0,0,0,0],"sum_hessian":[1.9684978E1,1.7367359E0,1.7948242E1,2.2185848E0,1.5729658E1,9.331253E0,6.3984046E0],"tree_param":{"num_deleted":"0","num_feature":"53","num_nodes":"7","size_leaf_vector":"0"}},{"base_weights":[5.525487E-1,1.2060577E0,-1.8859006E-1,1.4306211E0,-1.8951109E-1,8.0415416E-1,-5.57391E-1,-9.489611E-1,4.6827713E-1],"categories":[],"categories_nodes":[],"categories_segments":[],"categories_sizes":[],"default_left":[1,1,1,0,0,0,1,0,0],"id":4,"left_children":[1,3,5,-1,-1,-1,7,-1,-1],"loss_changes":[9.007307E0,3.33249E0,3.8747904E0,0E0,0E0,0E0,3.4222145E0,0E0,0E0],"parents":[2147483647,0,0,1,1,2,2,6,6],"right_children":[2,4,6,-1,-1,-1,8,-1,-1],"split_conditions":[-1.1126539E-2,7.942529E-1,-5.202004E-1,1.1802625E-1,-1.5634665E-2,6.634272E-2,1.2049992E-1,-7.828929E-2,3.8632866E-2],"split_indices":[21,15,4,0,0,0,3,0,0],"split_type":[0,0,0,0,0,0,0,0,0],"sum_hessian":[1.7127438E1,8.768444E0,8.3589945E0,7.5314307E0,1.2370132E0,1.9444466E0,6.414548E0,4.6963906E0,1.718157E0],"tree_param":{"num_deleted":"0","num_feature":"53","num_nodes":"9","size_leaf_vector":"0"}},{"base_weights":[5.9651643E-1,8.5984945E-1,-5.978478E-1,-4.455985E-1,1.0039908E0,-1.2737198E0,6.445243E-1,-3.7017245E-2,1.1259345E0],"categories":[],"categories_nodes":[],"categories_segments":[],"categories_sizes":[],"default_left":[1,1,1,0,1,0,0,0,0],"id":5,"left_children":[1,3,5,-1,7,-1,-1,-1,-1],"loss_changes":[7.250859E0,3.8269444E0,4.5653653E0,0E0,2.1339493E0,0E0,0E0,0E0,0E0],"parents":[2147483647,0,0,1,1,2,2,4,4],"right_children":[2,4,6,-1,8,-1,-1,-1,-1],"split_conditions":[2.7902937E-1,-6.3573825E-1,3.626657E-1,-3.676188E-2,-6.2750447E-1,-1.05081886E-1,5.3173255E-2,-3.053923E-3,9.28896E-2],"split_indices":[30,50,3,0,12,0,0,0,0],"split_type":[0,0,0,0,0,0,0,0,0],"sum_hessian":[2.0419607E1,1.6960287E1,3.4593205E0,1.4785017E0,1.5481785E1,2.2241256E0,1.235195E0,1.6964012E0,1.3785384E1],"tree_param":{"num_deleted":"0","num_feature":"53","num_nodes":"9","size_leaf_vector":"0"}},{"base_weights":[3.4784734E-1,7.783213E-1,-5.284322E-1,-5.896814E-1,1.0764778E0,-9.176816E-1,4.0871805E-1,9.870766E-3,1.2219187E0,4.6435248E-2,-1.2712549E0],"categories":[],"categories_nodes":[],"categories_segments":[],"categories_sizes":[],"default_left":[1,1,1,0,1,1,0,0,0,0,0],"id":6,"left_children":[1,3,5,-1,7,9,-1,-1,-1,-1,-1],"loss_changes":[6.754325E0,5.398975E0,2.6130264E0,0E0,1.5305586E0,1.6416748E0,0E0,0E0,0E0,0E0,0E0],"parents":[2147483647,0,0,1,1,2,2,4,4,5,5],"right_children":[2,4,6,-1,8,10,-1,-1,-1,-1,-1],"split_conditions":[1.4708883E-1,-6.4632374E-1,5.2381784E-1,-4.8648715E-2,-9.917254E-2,4.3031758E-1,3.371924E-2,8.143382E-4,1.008083E-1,3.830908E-3,-1.0487853E-1],"split_indices":[37,50,1,0,35,29,0,0,0,0,0],"split_type":[0,0,0,0,0,0,0,0,0,0,0],"sum_hessian":[1.5815412E1,1.0680422E1,5.1349893E0,1.7362756E0,8.944147E0,3.642737E0,1.4922523E0,1.2014027E0,7.742744E0,1.210537E0,2.4322E0],"tree_param":{"num_deleted":"0","num_feature":"53","num_nodes":"11","size_leaf_vector":"0"}},{"base_weights":[5.582261E-1,1.0854597E0,-1.3229328E-2,-4.912722E-2,1.2497518E0,-8.6195344E-1,5.242208E-1,4.8120844E-1,1.4304249E0,4.8010543E-1,-1.5718222E0,1.1265594E0,-4.6813235E-1],"categories":[],"categories_nodes":[],"categories_segments":[],"categories_sizes":[],"default_left":[1,1,1,0,1,1,1,0,0,0,0,0,0],"id":7,"left_children":[1,3,5,-1,7,9,11,-1,-1,-1,-1,-1,-1],"loss_changes":[5.4643397E0,1.8174067E0,4.862027E0,0E0,4.5954418E-1,4.6861806E0,4.437459E0,0E0,0E0,0E0,0E0,0E0,0E0],"parents":[2147483647,0,0,1,1,2,2,4,4,5,5,6,6],"right_children":[2,4,6,-1,8,10,12,-1,-1,-1,-1,-1,-1],"split_conditions":[2.0427133E-1,-3.8645023E-1,-5.180001E-2,-4.0529957E-3,-5.226984E-1,-7.653935E-1,7.847632E-1,3.96997E-2,1.1801006E-1,3.96087E-2,-1.2967533E-1,9.294115E-2,-3.862092E-2],"split_indices":[10,42,1,0,18,45,38,0,0,0,0,0,0],"split_type":[0,0,0,0,0,0,0,0,0,0,0,0,0],"sum_hessian":[1.7088787E1,8.420467E0,8.668319E0,1.1537495E0,7.2667184E0,3.1267974E0,5.5415215E0,2.0804343E0,5.186284E0,1.1936966E0,1.9331008E0,3.364249E0,2.1772723E0],"tree_param":{"num_deleted":"0","num_feature":"53","num_nodes":"13","size_leaf_vector":"0"}},{"base_weights":[4.8295265E-1,7.177291E-1,-5.556154E-1,-3.9507774E-1,8.3273757E-1,-1.0988832E0,2.6012453E-1,9.393324E-1,-2.1095058E-1],"categories":[],"categories_nodes":[],"categories_segments":[],"categories_sizes":[],"default_left":[1,1,1,0,1,0,0,0,0],"id":8,"left_children":[1,3,5,-1,7,-1,-1,-1,-1],"loss_changes":[5.1638427E0,2.4247818E0,2.1324496E0,0E0,1.8851175E0,0E0,0E0,0E0,0E0],"parents":[2147483647,0,0,1,1,2,2,4,4],"right_children":[2,4,6,-1,8,-1,-1,-1,-1],"split_conditions":[7.2630906E-1,-1.05259165E-1,7.617984E-1,-3.2593913E-2,7.481666E-1,-9.065786E-2,2.1460274E-2,7.749493E-2,-1.7403424E-2],"split_indices":[15,35,36,0,33,0,0,0,0],"split_type":[0,0,0,0,0,0,0,0,0],"sum_hessian":[1.854245E1,1.53756E1,3.1668508E0,1.212116E0,1.4163485E1,1.6925464E0,1.4743043E0,1.2941699E1,1.2217855E0],"tree_param":{"num_deleted":"0","num_feature":"53","num_nodes":"9","size_leaf_vector":"0"}},{"base_weights":[1.6938543E-1,-3.187934E-1,7.5720537E-1,6.8355113E-1,-7.211958E-1,1.1620682E0,-2.5843468E-1,1.0232077E0,-5.197898E-2,-1.4081019E0,-7.82745E-2,3.516123E-1,1.2608278E0,-6.0867894E-1,2.0915855E-1],"categories":[],"categories_nodes":[],"categories_segments":[],"categories_sizes":[],"default_left":[1,1,1,1,1,1,1,0,0,0,0,0,0,0,0],"id":9,"left_children":[1,3,5,7,9,11,13,-1,-1,-1,-1,-1,-1,-1,-1],"loss_changes":[5.8955946E0,5.1185017E0,4.098041E0,1.0021509E0,3.7184258E0,9.9782944E-2,6.923893E-1,0E0,0E0,0E0,0E0,0E0,0E0,0E0,0E0],"parents":[2147483647,0,0,1,1,2,2,3,3,4,4,5,5,6,6],"right_children":[2,4,6,8,10,12,14,-1,-1,-1,-1,-1,-1,-1,-1],"split_conditions":[1.4821501E-1,-4.0851963E-1,5.779555E-1,-5.049883E-1,1.3404897E-1,-3.8002965E-1,4.730731E-1,8.441464E-2,-4.288266E-3,-1.1616841E-1,-6.457647E-3,2.9008016E-2,1.0401829E-1,-5.0216015E-2,1.7255582E-2],"split_indices":[50,49,23,16,51,42,51,0,0,0,0,0,0,0,0],"split_type":[0,0,0,0,0,0,0,0,0,0,0,0,0,0,0],"sum_hessian":[1.8703714E1,1.04678955E1,8.235818E0,2.798481E0,7.6694145E0,5.7854147E0,2.4504035E0,1.646867E0,1.151614E0,3.1324735E0,4.536941E0,1.1237563E0,4.661659E0,1.2284914E0,1.221912E0],"tree_param":{"num_deleted":"0","num_feature":"53","num_nodes":"15","size_leaf_vector":"0"}},{"base_weights":[1.9343556E-1,-2.1090454E-1,7.4981433E-1,6.8063486E-1,-6.783071E-1,1.0164875E0,-3.5464156E-1,-2.3602465E-1,1.1128303E0,-9.419674E-1,5.7598346E-1,1.1810878E-1,1.2277374E0],"categories":[],"categories_nodes":[],"categories_segments":[],"categories_sizes":[],"default_left":[1,1,1,1,1,1,0,0,0,0,0,0,0],"id":10,"left_children":[1,3,5,7,9,11,-1,-1,-1,-1,-1,-1,-1],"loss_changes":[4.8250785E0,5.793251E0,2.9966831E0,2.2038243E0,3.4841099E0,1.2723641E0,0E0,0E0,0E0,0E0,0E0,0E0,0E0],"parents":[2147483647,0,0,1,1,2,2,3,3,4,4,5,5],"right_children":[2,4,6,8,10,12,-1,-1,-1,-1,-1,-1,-1],"split_conditions":[1.4821501E-1,-5.292393E-1,5.976236E-1,-4.0951818E-1,2.702554E-1,7.2425544E-2,-2.9257929E-2,-1.9472035E-2,9.1808505E-2,-7.771231E-2,4.7518637E-2,9.743975E-3,1.0128834E-1],"split_indices":[50,46,47,0,41,28,0,0,0,0,0,0,0],"split_type":[0,0,0,0,0,0,0,0,0,0,0,0,0],"sum_hessian":[1.9745064E1,1.179451E1,7.9505534E0,3.8997633E0,7.894747E0,6.468395E0,1.4821582E0,1.3949839E0,2.5047796E0,6.729223E0,1.1655241E0,1.5282652E0,4.9401298E0],"tree_param":{"num_deleted":"0","num_feature":"53","num_nodes":"13","size_leaf_vector":"0"}},{"base_weights":[6.767804E-1,9.0033734E-1,-4.387152E-1,1.0896348E0,-3.531964E-1,-1.0949327E0,4.121971E-1,1.3180504E-3,1.1985157E0],"categories":[],"categories_nodes":[],"categories_segments":[],"categories_sizes":[],"default_left":[1,1,1,1,0,0,0,0,0],"id":11,"left_children":[1,3,5,7,-1,-1,-1,-1,-1],"loss_changes":[5.196394E0,4.26855E0,2.6216471E0,1.7123966E0,0E0,0E0,0E0,0E0,0E0],"parents":[2147483647,0,0,1,1,2,2,3,3],"right_children":[2,4,6,8,-1,-1,-1,-1,-1],"split_conditions":[5.223593E-1,5.409348E-1,4.6337754E-1,-7.0191634E-1,-2.9138705E-2,-9.033195E-2,3.4006264E-2,1.08739165E-4,9.887754E-2],"split_indices":[43,11,25,14,0,0,0,0,0],"split_type":[0,0,0,0,0,0,0,0,0],"sum_hessian":[1.8253607E1,1.5366817E1,2.8867886E0,1.3464308E1,1.9025102E0,1.467945E0,1.4188437E0,1.3165783E0,1.2147729E1],"tree_param":{"num_deleted":"0","num_feature":"53","num_nodes":"9","size_leaf_vector":"0"}},{"base_weights":[5.0142515E-1,7.5245774E-1,-4.101643E-1,9.773369E-1,-1.5072074E-2,-1.0170038E0,5.0097257E-1,3.578028E-1,1.3204317E0,-6.1186904E-1,5.343567E-1],"categories":[],"categories_nodes":[],"categories_segments":[],"categories_sizes":[],"default_left":[1,1,1,1,1,0,0,0,0,0,0],"id":12,"left_children":[1,3,5,7,9,-1,-1,-1,-1,-1,-1],"loss_changes":[4.8743052E0,2.7757273E0,3.249246E0,2.160471E0,1.8384255E0,0E0,0E0,0E0,0E0,0E0,0E0],"parents":[2147483647,0,0,1,1,2,2,3,3,4,4],"right_children":[2,4,6,8,10,-1,-1,-1,-1,-1,-1],"split_conditions":[2.7341115E-1,2.9582286E-1,1.2183437E-2,-1.06690824E-1,9.2180777E-1,-8.390281E-2,4.1330237E-2,2.9518733E-2,1.0893562E-1,-5.0479196E-2,4.408443E-2],"split_indices":[42,32,51,32,23,0,0,0,0,0,0],"split_type":[0,0,0,0,0,0,0,0,0,0,0],"sum_hessian":[1.8951496E1,1.4996375E1,3.955122E0,1.1386796E1,3.6095793E0,2.3042457E0,1.6508762E0,4.7865257E0,6.60027E0,1.6757314E0,1.9338478E0],"tree_param":{"num_deleted":"0","num_feature":"53","num_nodes":"11","size_leaf_vector":"0"}},{"base_weights":[3.9055327E-1,6.5525186E-1,-5.702522E-1,-4.4003102E-1,8.9210004E-1,-1.0007738E0,2.554931E-1,5.03267E-1,-1.2426893E0,1.0262557E0,-3.0877617E-1],"categories":[],"categories_nodes":[],"categories_segments":[],"categories_sizes":[],"default_left":[1,1,1,1,1,0,0,0,0,0,0],"id":13,"left_children":[1,3,5,7,9,-1,-1,-1,-1,-1,-1],"loss_changes":[5.500511E0,4.613232E0,1.9936653E0,3.322674E0,2.5252266E0,0E0,0E0,0E0,0E0,0E0,0E0],"parents":[2147483647,0,0,1,1,2,2,3,3,4,4],"right_children":[2,4,6,8,10,-1,-1,-1,-1,-1,-1],"split_conditions":[5.976236E-1,-6.919834E-1,5.583194E-1,-8.1535757E-1,3.4346145E-1,-8.256384E-2,2.1078182E-2,4.151953E-2,-1.0252187E-1,8.46661E-2,-2.5474034E-2],"split_indices":[47,14,22,15,9,0,0,0,0,0,0],"split_type":[0,0,0,0,0,0,0,0,0,0,0],"sum_hessian":[1.915875E1,1.5269949E1,3.8888009E0,2.562418E0,1.2707531E1,2.4167879E0,1.4720131E0,1.3494823E0,1.2129357E0,1.1561366E1,1.1461651E0],"tree_param":{"num_deleted":"0","num_feature":"53","num_nodes":"11","size_leaf_vector":"0"}},{"base_weights":[3.7952036E-1,9.764332E-1,-8.187889E-2,2.3137669E-3,1.1711829E0,-1.1176028E0,3.471931E-1,-1.3586746E0,-3.0493608E-1,9.7526944E-1,-5.674051E-1],"categories":[],"categories_nodes":[],"categories_segments":[],"categories_sizes":[],"default_left":[1,1,1,0,0,1,1,0,0,0,0],"id":14,"left_children":[1,3,5,-1,-1,7,9,-1,-1,-1,-1],"loss_changes":[5.0071793E0,1.4916449E0,5.2822566E0,0E0,0E0,2.6413488E-1,5.464873E0,0E0,0E0,0E0,0E0],"parents":[2147483647,0,0,1,1,2,2,5,5,6,6],"right_children":[2,4,6,-1,-1,8,10,-1,-1,-1,-1],"split_conditions":[-2.2353274E-1,-1.0940029E-1,-1.1103285E-2,1.9088577E-4,9.662259E-2,-1.3485402E-1,2.0918961E-1,-1.1209066E-1,-2.5157228E-2,8.045973E-2,-4.681092E-2],"split_indices":[49,28,51,0,0,32,4,0,0,0,0],"split_type":[0,0,0,0,0,0,0,0,0,0,0],"sum_hessian":[1.6890194E1,6.8770723E0,1.0013123E1,1.3144081E0,5.5626645E0,2.4630187E0,7.5501037E0,1.3813722E0,1.0816463E0,4.436866E0,3.1132379E0],"tree_param":{"num_deleted":"0","num_feature":"53","num_nodes":"11","size_leaf_vector":"0"}},{"base_weights":[1.8298885E-1,3.632722E-1,-4.606396E-1,-1.7852055E-1,7.4959147E-1,-1.1333722E0,3.9505926E-1,4.777397E-1,-1.0463828E0,9.4675875E-1,-2.8261498E-1],"categories":[],"categories_nodes":[],"categories_segments":[],"categories_sizes":[],"default_left":[1,1,1,1,1,0,0,0,0,0,0],"id":15,"left_children":[1,3,5,7,9,-1,-1,-1,-1,-1,-1],"loss_changes":[2.2214582E0,3.145308E0,2.9314013E0,4.370837E0,2.0160851E0,0E0,0E0,0E0,0E0,0E0,0E0],"parents":[2147483647,0,0,1,1,2,2,3,3,4,4],"right_children":[2,4,6,8,10,-1,-1,-1,-1,-1,-1],"split_conditions":[4.0674734E-1,-2.4610479E-1,5.975796E-1,-3.2795292E-1,1.1884313E0,-9.350321E-2,3.259239E-2,3.9413527E-2,-8.6326584E-2,7.81076E-2,-2.3315737E-2],"split_indices":[1,0,1,49,38,0,0,0,0,0,0],"split_type":[0,0,0,0,0,0,0,0,0,0,0],"sum_hessian":[1.670252E1,1.3388051E1,3.3144684E0,5.7965646E0,7.591487E0,1.6739471E0,1.6405213E0,3.5566313E0,2.239933E0,6.443467E0,1.1480197E0],"tree_param":{"num_deleted":"0","num_feature":"53","num_nodes":"11","size_leaf_vector":"0"}},{"base_weights":[1.0398612E-1,3.9009973E-1,-6.223997E-1,7.171934E-1,-6.246155E-1,-9.368816E-1,2.5598082E-1,1.0806453E0,-1.3732846E-1,3.6936817E-1,-1.3279167E0,-1.3828748E-1,-1.1533422E0],"categories":[],"categories_nodes":[],"categories_segments":[],"categories_sizes":[],"default_left":[1,1,1,1,1,1,0,0,0,0,0,0,0],"id":16,"left_children":[1,3,5,7,9,11,-1,-1,-1,-1,-1,-1,-1],"loss_changes":[3.9179876E0,4.862781E0,1.7266235E0,3.417037E0,3.1308618E0,5.62731E-1,0E0,0E0,0E0,0E0,0E0,0E0,0E0],"parents":[2147483647,0,0,1,1,2,2,3,3,4,4,5,5],"right_children":[2,4,6,8,10,12,-1,-1,-1,-1,-1,-1,-1],"split_conditions":[1.9932453E-1,1.57498E-1,6.1211906E-2,7.931874E-1,-9.111732E-1,9.388436E-3,2.111842E-2,8.9153245E-2,-1.1329599E-2,3.0472875E-2,-1.09553136E-1,-1.1408718E-2,-9.515074E-2],"split_indices":[35,26,9,38,23,0,0,0,0,0,0,0,0],"split_type":[0,0,0,0,0,0,0,0,0,0,0,0,0],"sum_hessian":[1.668373E1,1.230135E1,4.3823786E0,9.524373E0,2.7769766E0,3.1779819E0,1.2043968E0,6.4965787E0,3.0277948E0,1.3474368E0,1.4295398E0,1.0271919E0,2.1507897E0],"tree_param":{"num_deleted":"0","num_feature":"53","num_nodes":"13","size_leaf_vector":"0"}},{"base_weights":[2.911081E-1,5.553145E-1,-5.1299614E-1,-1.5343265E-1,1.036164E0,-1.204284E0,4.5883986E-1,8.395631E-1,-7.1693474E-1,2.7102378E-1,1.1249983E0],"categories":[],"categories_nodes":[],"categories_segments":[],"categories_sizes":[],"default_left":[1,1,1,1,1,0,0,0,0,0,0],"id":17,"left_children":[1,3,5,7,9,-1,-1,-1,-1,-1,-1],"loss_changes":[3.7403815E0,4.494892E0,3.6042147E0,3.966909E0,2.1908665E-1,0E0,0E0,0E0,0E0,0E0,0E0],"parents":[2147483647,0,0,1,1,2,2,3,3,4,4],"right_children":[2,4,6,8,10,-1,-1,-1,-1,-1,-1],"split_conditions":[2.9582286E-1,-3.230132E-1,1.3232046E-1,-5.282823E-1,-2.6170605E-1,-9.935343E-2,3.785429E-2,6.926396E-2,-5.914712E-2,2.2359462E-2,9.281237E-2],"split_indices":[32,0,42,1,1,0,0,0,0,0,0],"split_type":[0,0,0,0,0,0,0,0,0,0,0],"sum_hessian":[1.5265077E1,1.1722716E1,3.54236E0,5.0136995E0,6.7090173E0,1.9301901E0,1.61217E0,1.6377596E0,3.3759398E0,1.1192944E0,5.5897226E0],"tree_param":{"num_deleted":"0","num_feature":"53","num_nodes":"11","size_leaf_vector":"0"}},{"base_weights":[2.3817448E-1,5.31849E-1,-6.980204E-1,7.9627633E-1,-4.0447646E-1,-1.0205034E0,-4.968379E-2,-2.8353348E-1,1.0157906E0,-8.5140955E-1,3.1515396E-1],"categories":[],"categories_nodes":[],"categories_segments":[],"categories_sizes":[],"default_left":[1,1,1,1,1,0,0,0,0,0,0],"id":18,"left_children":[1,3,5,7,9,-1,-1,-1,-1,-1,-1],"loss_changes":[4.835196E0,3.5226393E0,8.5030293E-1,2.7571883E0,1.3971951E0,0E0,0E0,0E0,0E0,0E0,0E0],"parents":[2147483647,0,0,1,1,2,2,3,3,4,4],"right_children":[2,4,6,8,10,-1,-1,-1,-1,-1,-1],"split_conditions":[6.097267E-1,5.61128E-1,7.25296E-1,-5.3234935E-1,1.097158E-1,-8.419153E-2,-4.0989127E-3,-2.3391513E-2,8.380273E-2,-7.024129E-2,2.6000202E-2],"split_indices":[43,10,12,0,26,0,0,0,0,0,0],"split_type":[0,0,0,0,0,0,0,0,0,0,0],"sum_hessian":[1.5236303E1,1.1926871E1,3.3094316E0,9.416995E0,2.5098767E0,1.8267647E0,1.4826667E0,1.5416824E0,7.8753123E0,1.4353306E0,1.074546E0],"tree_param":{"num_deleted":"0","num_feature":"53","num_nodes":"11","size_leaf_vector":"0"}},{"base_weights":[1.7243738E-1,7.222753E-1,-1.2016785E-1,-1.6479658E-1,9.161719E-1,-8.368173E-1,3.5753745E-1,1.0209725E0,2.5869253E-1,-1.5024723E-1,-1.2237155E0,-4.3846494E-1,8.5430115E-1],"categories":[],"categories_nodes":[],"categories_segments":[],"categories_sizes":[],"default_left":[1,1,1,0,1,1,1,0,0,0,0,0,0],"id":19,"left_children":[1,3,5,-1,7,9,11,-1,-1,-1,-1,-1,-1],"loss_changes":[3.1582525E0,1.3160243E0,4.8583922E0,0E0,1.2939072E-1,1.3105726E0,3.8114314E0,0E0,0E0,0E0,0E0,0E0,0E0],"parents":[2147483647,0,0,1,1,2,2,4,4,5,5,6,6],"right_children":[2,4,6,-1,8,10,12,-1,-1,-1,-1,-1,-1],"split_conditions":[-3.2795292E-1,-3.556657E-1,7.665854E-3,-1.3595718E-2,-3.3046365E-1,7.7245208E-3,1.2110852E-1,8.423024E-2,2.1342134E-2,-1.2395397E-2,-1.0095654E-1,-3.617336E-2,7.047985E-2],"split_indices":[49,34,51,0,23,30,38,0,0,0,0,0,0],"split_type":[0,0,0,0,0,0,0,0,0,0,0,0,0],"sum_hessian":[1.8090961E1,5.773493E0,1.2317468E1,1.0625288E0,4.7109637E0,4.625935E0,7.691533E0,3.586436E0,1.1245277E0,2.1676571E0,2.458278E0,3.0006769E0,4.690856E0],"tree_param":{"num_deleted":"0","num_feature":"53","num_nodes":"13","size_leaf_vector":"0"}},{"base_weights":[1.4666411E-1,5.349408E-1,-6.780649E-1,6.5861154E-1,-4.191025E-1,-1.0025518E0,2.3919411E-1,5.0814074E-2,9.276047E-1,-1.3413014E0,-3.702719E-1],"categories":[],"categories_nodes":[],"categories_segments":[],"categories_sizes":[],"default_left":[1,1,1,1,0,1,0,0,0,0,0],"id":20,"left_children":[1,3,5,7,-1,9,-1,-1,-1,-1,-1],"loss_changes":[5.9683332E0,1.7462595E0,2.0388408E0,1.8199449E0,0E0,5.0092125E-1,0E0,0E0,0E0,0E0,0E0],"parents":[2147483647,0,0,1,1,2,2,3,3,5,5],"right_children":[2,4,6,8,-1,10,-1,-1,-1,-1,-1],"split_conditions":[4.075033E-1,3.4865505E-1,7.112204E-1,-4.5900452E-1,-3.4575958E-2,5.5212426E-1,1.9733515E-2,4.1921614E-3,7.652739E-2,-1.1065737E-1,-3.0547433E-2],"split_indices":[17,9,33,51,0,14,0,0,0,0,0],"split_type":[0,0,0,0,0,0,0,0,0,0,0],"sum_hessian":[1.6505325E1,1.1460959E1,5.0443664E0,1.041991E1,1.0410495E0,3.6575096E0,1.3868566E0,3.5615022E0,6.8584075E0,1.6513897E0,2.00612E0],"tree_param":{"num_deleted":"0","num_feature":"53","num_nodes":"11","size_leaf_vector":"0"}},{"base_weights":[3.1316537E-1,5.202497E-1,-4.713669E-1,7.3660344E-1,-6.5113163E-1,-8.854522E-1,2.6951885E-1,9.132814E-1,1.5968762E-2],"categories":[],"categories_nodes":[],"categories_segments":[],"categories_sizes":[],"default_left":[1,1,1,1,0,0,0,0,0],"id":21,"left_children":[1,3,5,7,-1,-1,-1,-1,-1],"loss_changes":[3.1417024E0,4.174809E0,1.5418394E0,1.6121321E0,0E0,0E0,0E0,0E0,0E0],"parents":[2147483647,0,0,1,1,2,2,3,3],"right_children":[2,4,6,8,-1,-1,-1,-1,-1],"split_conditions":[2.0111431E-1,1.1594081E0,1.2246395E-1,1.5136553E-1,-5.3718362E-2,-7.304981E-2,2.2235306E-2,7.534572E-2,1.317423E-3],"split_indices":[35,38,28,26,0,0,0,0,0],"split_type":[0,0,0,0,0,0,0,0,0],"sum_hessian":[1.6828367E1,1.358053E1,3.2478366E0,1.1776569E1,1.8039612E0,1.9582392E0,1.2895975E0,9.243108E0,2.5334613E0],"tree_param":{"num_deleted":"0","num_feature":"53","num_nodes":"9","size_leaf_vector":"0"}},{"base_weights":[1.4105977E-1,4.296173E-1,-5.90688E-1,-5.5950934E-1,6.1617094E-1,-9.633759E-1,4.4646877E-1,-2.102304E-1,7.962543E-1,-1.4097638E0,-9.874173E-2],"categories":[],"categories_nodes":[],"categories_segments":[],"categories_sizes":[],"default_left":[1,1,1,0,1,1,0,0,0,0,0],"id":22,"left_children":[1,3,5,-1,7,9,-1,-1,-1,-1,-1],"loss_changes":[3.755692E0,2.6464043E0,2.4059038E0,0E0,1.7999692E0,1.43436E0,0E0,0E0,0E0,0E0,0E0],"parents":[2147483647,0,0,1,1,2,2,4,4,5,5],"right_children":[2,4,6,-1,8,10,-1,-1,-1,-1,-1],"split_conditions":[4.9576372E-1,-3.700565E-1,4.9728453E-1,-4.615952E-2,-1.6565707E-1,5.540273E-1,3.6833674E-2,-1.734401E-2,6.569098E-2,-1.1630552E-1,-8.146193E-3],"split_indices":[11,41,21,0,30,11,0,0,0,0,0],"split_type":[0,0,0,0,0,0,0,0,0,0,0],"sum_hessian":[1.5584893E1,1.14733715E1,4.111522E0,1.5033368E0,9.970035E0,3.076987E0,1.0345352E0,1.7539166E0,8.216118E0,1.6135035E0,1.4634836E0],"tree_param":{"num_deleted":"0","num_feature":"53","num_nodes":"11","size_leaf_vector":"0"}},{"base_weights":[-3.090957E-2,-4.8609492E-1,2.9494283E-1,3.297139E-1,-1.042484E0,8.7265277E-1,-3.358696E-1,-2.1454582E-1,6.8349755E-1,-1.2587267E-1,-1.3453419E0,1.0692244E0,1.1766668E-1,4.36481E-1,-7.0388967E-1],"categories":[],"categories_nodes":[],"categories_segments":[],"categories_sizes":[],"default_left":[1,1,1,1,1,1,1,0,0,0,0,0,0,0,0],"id":23,"left_children":[1,3,5,7,9,11,13,-1,-1,-1,-1,-1,-1,-1,-1],"loss_changes":[2.194412E0,3.133803E0,3.4568229E0,7.7283084E-1,9.1184664E-1,5.879359E-1,1.6920663E0,0E0,0E0,0E0,0E0,0E0,0E0,0E0,0E0],"parents":[2147483647,0,0,1,1,2,2,3,3,4,4,5,5,6,6],"right_children":[2,4,6,8,10,12,14,-1,-1,-1,-1,-1,-1,-1,-1],"split_conditions":[-1.4167759E-1,2.4624777E-1,1.2821321E-1,-5.316025E-1,-2.2873205E-1,3.492003E-2,-3.8998306E-1,-1.7700031E-2,5.638855E-2,-1.0384495E-2,-1.1099071E-1,8.8211015E-2,9.707501E-3,3.6009684E-2,-5.8070898E-2],"split_indices":[8,10,4,10,3,48,2,0,0,0,0,0,0,0,0],"split_type":[0,0,0,0,0,0,0,0,0,0,0,0,0,0,0],"sum_hessian":[1.282819E1,5.1468115E0,7.6813784E0,2.252084E0,2.8947275E0,3.809337E0,3.8720417E0,1.0422528E0,1.2098311E0,1.0704837E0,1.8242439E0,2.6921732E0,1.1171637E0,1.1895502E0,2.6824915E0],"tree_param":{"num_deleted":"0","num_feature":"53","num_nodes":"15","size_leaf_vector":"0"}},{"base_weights":[9.6690826E-2,3.0016857E-1,-6.770279E-1,-1.6585526E-1,1.0532795E0,-8.985957E-1,-9.173302E-2,3.4885147E-1,-1.2429352E0,1.155393E0,3.1465653E-1],"categories":[],"categories_nodes":[],"categories_segments":[],"categories_sizes":[],"default_left":[1,1,1,1,1,0,0,0,0,0,0],"id":24,"left_children":[1,3,5,7,9,-1,-1,-1,-1,-1,-1],"loss_changes":[2.8053558E0,5.0108666E0,4.0372348E-1,5.631559E0,4.398918E-2,0E0,0E0,0E0,0E0,0E0,0E0],"parents":[2147483647,0,0,1,1,2,2,3,3,4,4],"right_children":[2,4,6,8,10,-1,-1,-1,-1,-1,-1],"split_conditions":[6.8095267E-1,2.437455E-1,3.995595E-1,1.71113E-2,4.8422095E-1,-7.413415E-2,-7.5679747E-3,2.8780248E-2,-1.02542154E-1,9.531993E-2,2.5959164E-2],"split_indices":[7,52,34,46,48,0,0,0,0,0,0],"split_type":[0,0,0,0,0,0,0,0,0,0,0],"sum_hessian":[1.5528351E1,1.2779545E1,2.7488065E0,8.376162E0,4.4033823E0,1.6056778E0,1.1431286E0,6.125208E0,2.250954E0,3.3728402E0,1.0305423E0],"tree_param":{"num_deleted":"0","num_feature":"53","num_nodes":"11","size_leaf_vector":"0"}},{"base_weights":[-2.8404465E-2,3.014242E-1,-5.569946E-1,-3.547518E-1,8.7347305E-1,-9.14963E-1,5.637718E-1,-7.4180925E-1,6.8053E-1,2.2958186E-1,1.0482552E0,-1.1611414E0,4.6511933E-2],"categories":[],"categories_nodes":[],"categories_segments":[],"categories_sizes":[],"default_left":[1,1,1,1,1,1,0,0,0,0,0,0,0],"id":25,"left_children":[1,3,5,7,9,11,-1,-1,-1,-1,-1,-1,-1],"loss_changes":[3.2963355E0,4.701E0,3.422819E0,2.973093E0,4.9520063E-1,1.4441061E0,0E0,0E0,0E0,0E0,0E0,0E0,0E0],"parents":[2147483647,0,0,1,1,2,2,3,3,4,4,5,5],"right_children":[2,4,6,8,10,12,-1,-1,-1,-1,-1,-1,-1],"split_conditions":[3.301341E-1,-5.4537743E-2,3.4254903E-1,-1.4167759E-1,-1.8782112E-1,5.2855086E-1,4.6511173E-2,-6.1199266E-2,5.6143727E-2,1.8940505E-2,8.648106E-2,-9.579417E-2,3.8372346E-3],"split_indices":[6,30,3,8,3,25,0,0,0,0,0,0,0],"split_type":[0,0,0,0,0,0,0,0,0,0,0,0,0],"sum_hessian":[1.6944065E1,1.0698312E1,6.245754E0,5.1596856E0,5.538626E0,4.872973E0,1.3727808E0,3.9619248E0,1.1977608E0,1.6763915E0,3.8622348E0,3.7142901E0,1.1586827E0],"tree_param":{"num_deleted":"0","num_feature":"53","num_nodes":"13","size_leaf_vector":"0"}},{"base_weights":[-1.1712285E-1,2.583105E-1,-8.027497E-1,6.889075E-1,-3.8313976E-1,-7.1151444E-4,-1.1875513E0,-7.3722474E-2,1.0183696E0,-8.5945344E-1,3.1963396E-1,-1.3751915E0,-3.1627506E-1],"categories":[],"categories_nodes":[],"categories_segments":[],"categories_sizes":[],"default_left":[1,1,1,1,1,0,1,0,0,0,0,0,0],"id":26,"left_children":[1,3,5,7,9,-1,11,-1,-1,-1,-1,-1,-1],"loss_changes":[4.499732E0,3.449089E0,1.8952534E0,1.8985305E0,2.0402772E0,0E0,2.4372005E-1,0E0,0E0,0E0,0E0,0E0,0E0],"parents":[2147483647,0,0,1,1,2,2,3,3,4,4,6,6],"right_children":[2,4,6,8,10,-1,12,-1,-1,-1,-1,-1,-1],"split_conditions":[1.3264617E-1,5.0297683E-1,1.22285925E-1,-3.050871E-1,1.6858679E-1,-5.8699945E-5,3.3602005E-1,-6.0821045E-3,8.401549E-2,-7.090491E-2,2.6369803E-2,-1.134533E-1,-2.6092693E-2],"split_indices":[35,11,20,21,51,0,3,0,0,0,0,0,0],"split_type":[0,0,0,0,0,0,0,0,0,0,0,0,0],"sum_hessian":[1.5675424E1,1.0531737E1,5.1436863E0,6.257307E0,4.2744308E0,1.9925281E0,3.151158E0,2.121877E0,4.13543E0,2.414815E0,1.8596159E0,2.1168938E0,1.0342642E0],"tree_param":{"num_deleted":"0","num_feature":"53","num_nodes":"13","size_leaf_vector":"0"}},{"base_weights":[9.454542E-2,-4.2245552E-1,4.975283E-1,3.2511643E-1,-8.513201E-1,9.6613914E-1,-2.5405198E-1,-2.3611668E-1,6.875635E-1,9.598841E-2,-1.3870196E0,-8.787606E-1,7.89047E-1],"categories":[],"categories_nodes":[],"categories_segments":[],"categories_sizes":[],"default_left":[1,1,1,1,1,0,1,0,0,0,0,0,0],"id":27,"left_children":[1,3,5,7,9,-1,11,-1,-1,-1,-1,-1,-1],"loss_changes":[3.2165728E0,2.476664E0,3.2632313E0,8.1836945E-1,2.4860897E0,0E0,3.353652E0,0E0,0E0,0E0,0E0,0E0,0E0],"parents":[2147483647,0,0,1,1,2,2,3,3,4,4,6,6],"right_children":[2,4,6,8,10,-1,12,-1,-1,-1,-1,-1,-1],"split_conditions":[-7.234195E-2,-6.1113536E-1,5.635431E-1,-6.078474E-1,5.9790164E-2,7.970648E-2,6.541605E-1,-1.9479627E-2,5.672399E-2,7.919044E-3,-1.1442912E-1,-7.249775E-2,6.509638E-2],"split_indices":[32,46,33,22,9,0,1,0,0,0,0,0,0],"split_type":[0,0,0,0,0,0,0,0,0,0,0,0,0],"sum_hessian":[1.3430032E1,5.8616257E0,7.5684066E0,2.2250173E0,3.6366081E0,4.485942E0,3.0824647E0,1.0098531E0,1.2151642E0,1.6101332E0,2.026475E0,2.0264053E0,1.0560594E0],"tree_param":{"num_deleted":"0","num_feature":"53","num_nodes":"13","size_leaf_vector":"0"}},{"base_weights":[1.8437351E-1,-3.6566356E-1,5.0444376E-1,3.3773527E-1,-9.8846984E-1,-8.398E-2,6.8906516E-1,-3.27512E-1,7.7150786E-1,-1.2102556E0,-2.3803042E-1,4.2994365E-1,-6.0044044E-1,-1.452173E-1,9.1742295E-1],"categories":[],"categories_nodes":[],"categories_segments":[],"categories_sizes":[],"default_left":[1,1,1,1,1,1,1,0,0,0,0,0,0,0,0],"id":28,"left_children":[1,3,5,7,9,11,13,-1,-1,-1,-1,-1,-1,-1,-1],"loss_changes":[2.7693012E0,2.9538703E0,1.1118188E0,1.2782307E0,2.8225613E-1,1.1097227E0,1.5608201E0,0E0,0E0,0E0,0E0,0E0,0E0,0E0,0E0],"parents":[2147483647,0,0,1,1,2,2,3,3,4,4,5,5,6,6],"right_children":[2,4,6,8,10,12,14,-1,-1,-1,-1,-1,-1,-1,-1],"split_conditions":[-4.2574424E-1,-3.8067842E-1,-4.129166E-1,-6.691551E-1,3.2805866E-1,-2.0943114E-1,-3.2353547E-1,-2.7019741E-2,6.36494E-2,-9.9846095E-2,-1.963751E-2,3.547035E-2,-4.953634E-2,-1.1980427E-2,7.568739E-2],"split_indices":[50,14,48,6,14,50,41,0,0,0,0,0,0,0,0],"split_type":[0,0,0,0,0,0,0,0,0,0,0,0,0,0,0],"sum_hessian":[1.3682402E1,4.980692E0,8.70171E0,2.5539618E0,2.4267302E0,2.2083614E0,6.493348E0,1.1047108E0,1.4492509E0,1.4001877E0,1.0265424E0,1.1908648E0,1.0174967E0,1.473638E0,5.01971E0],"tree_param":{"num_deleted":"0","num_feature":"53","num_nodes":"15","size_leaf_vector":"0"}},{"base_weights":[7.8051634E-2,-8.8676715E-1,2.793279E-1,5.2665377E-1,-4.1448435E-1,7.1504134E-1,-5.405156E-1,-9.310896E-1,1.7274147E-1],"categories":[],"categories_nodes":[],"categories_segments":[],"categories_sizes":[],"default_left":[1,0,1,1,1,0,0,0,0],"id":29,"left_children":[1,-1,3,5,7,-1,-1,-1,-1],"loss_changes":[3.256189E0,0E0,2.5483313E0,2.487487E0,1.4131088E0,0E0,0E0,0E0,0E0],"parents":[2147483647,0,0,2,2,3,3,4,4],"right_children":[2,-1,4,6,8,-1,-1,-1,-1],"split_conditions":[-3.9557147E-1,-7.3158294E-2,6.2675774E-1,3.514257E-1,1.0179031E-1,5.8990914E-2,-4.459254E-2,-7.681489E-2,1.4251172E-2],"split_indices":[42,0,33,9,28,0,0,0,0],"split_type":[0,0,0,0,0,0,0,0,0],"sum_hessian":[1.4492101E1,1.9135877E0,1.2578513E1,9.450563E0,3.12795E0,8.313027E0,1.1375353E0,1.352516E0,1.7754339E0],"tree_param":{"num_deleted":"0","num_feature":"53","num_nodes":"9","size_leaf_vector":"0"}},{"base_weights":[4.225691E-2,4.035748E-1,-6.5806973E-1,7.670045E-1,-4.3204626E-1,-8.5396934E-1,-6.966589E-3,9.394068E-1,-8.487872E-2,6.61325E-1,-1.1061366E0,-1.2855761E-1,-1.0660019E0],"categories":[],"categories_nodes":[],"categories_segments":[],"categories_sizes":[],"default_left":[1,1,1,1,1,1,0,0,0,0,0,0,0],"id":30,"left_children":[1,3,5,7,9,11,-1,-1,-1,-1,-1,-1,-1],"loss_changes":[3.8804579E0,3.3815284E0,6.62689E-1,1.1606379E0,3.44665E0,4.8150396E-1,0E0,0E0,0E0,0E0,0E0,0E0,0E0],"parents":[2147483647,0,0,1,1,2,2,3,3,4,4,5,5],"right_children":[2,4,6,8,10,12,-1,-1,-1,-1,-1,-1,-1],"split_conditions":[5.2174467E-1,1.9074365E-1,5.2874815E-1,5.090263E-1,-2.5129426E-1,1.2581551E-1,-5.747436E-4,7.7501066E-2,-7.0024948E-3,5.4559313E-2,-9.125627E-2,-1.0606003E-2,-8.794516E-2],"split_indices":[33,26,48,10,37,35,0,0,0,0,0,0,0],"split_type":[0,0,0,0,0,0,0,0,0,0,0,0,0],"sum_hessian":[1.3285766E1,9.043636E0,4.242129E0,6.3597555E0,2.683881E0,3.0214746E0,1.2206544E0,5.203867E0,1.1558886E0,1.030825E0,1.6530561E0,1.0467194E0,1.9747552E0],"tree_param":{"num_deleted":"0","num_feature":"53","num_nodes":"13","size_leaf_vector":"0"}},{"base_weights":[-6.0453635E-2,-2.0344609E-1,7.665653E-1,-3.3927163E-1,6.365311E-1,4.123276E-1,-5.5755544E-1],"categories":[],"categories_nodes":[],"categories_segments":[],"categories_sizes":[],"default_left":[1,1,0,1,0,0,0],"id":31,"left_children":[1,3,-1,5,-1,-1,-1],"loss_changes":[2.205046E0,1.9915856E0,0E0,2.5348587E0,0E0,0E0,0E0],"parents":[2147483647,0,0,1,1,3,3],"right_children":[2,4,-1,6,-1,-1,-1],"split_conditions":[6.548329E-1,4.6765542E-1,6.324164E-2,-5.292393E-1,5.251382E-2,3.4017026E-2,-4.5998324E-2],"split_indices":[19,21,0,46,0,0,0],"split_type":[0,0,0,0,0,0,0],"sum_hessian":[1.6327374E1,1.45633545E1,1.7640187E0,1.304935E1,1.5140046E0,2.736843E0,1.0312507E1],"tree_param":{"num_deleted":"0","num_feature":"53","num_nodes":"7","size_leaf_vector":"0"}},{"base_weights":[2.1321054E-1,5.388797E-1,-4.2347842E-1,-9.941494E-2,8.0386984E-1,-6.859716E-1,3.3976984E-1,4.6122676E-1,-6.030023E-1,1.5385163E-1,1.0783772E0,-9.727735E-1,5.572301E-3],"categories":[],"categories_nodes":[],"categories_segments":[],"categories_sizes":[],"default_left":[1,1,1,1,1,1,0,0,0,0,0,0,0],"id":32,"left_children":[1,3,5,7,9,11,-1,-1,-1,-1,-1,-1,-1],"loss_changes":[3.3021529E0,1.8132992E0,1.3503752E0,1.3781865E0,1.1458993E0,8.941498E-1,0E0,0E0,0E0,0E0,0E0,0E0,0E0],"parents":[2147483647,0,0,1,1,2,2,3,3,4,4,5,5],"right_children":[2,4,6,8,10,12,-1,-1,-1,-1,-1,-1,-1],"split_conditions":[6.2675774E-1,-5.197098E-1,5.9125197E-1,-4.578705E-2,-4.84331E-1,3.7150228E-1,2.8031012E-2,3.805121E-2,-4.9747694E-2,1.269276E-2,8.8966124E-2,-8.025382E-2,4.5971485E-4],"split_indices":[33,10,22,26,50,38,0,0,0,0,0,0,0],"split_type":[0,0,0,0,0,0,0,0,0,0,0,0,0],"sum_hessian":[1.382493E1,9.248105E0,4.576824E0,2.8963532E0,6.3517523E0,3.4809258E0,1.0958986E0,1.4103426E0,1.4860107E0,2.349272E0,4.00248E0,2.173039E0,1.3078866E0],"tree_param":{"num_deleted":"0","num_feature":"53","num_nodes":"13","size_leaf_vector":"0"}},{"base_weights":[1.9711474E-1,5.3826886E-1,-7.412655E-1,7.7284217E-1,-6.9999546E-2,-9.5241046E-1,-8.448222E-2,-7.786899E-2,9.3216956E-1,-7.2086996E-1,5.9296536E-1],"categories":[],"categories_nodes":[],"categories_segments":[],"categories_sizes":[],"default_left":[1,1,1,1,1,0,0,0,0,0,0],"id":33,"left_children":[1,3,5,7,9,-1,-1,-1,-1,-1,-1],"loss_changes":[4.785181E0,1.5704575E0,4.844687E-1,1.123405E0,2.0993972E0,0E0,0E0,0E0,0E0,0E0,0E0],"parents":[2147483647,0,0,1,1,2,2,3,3,4,4],"right_children":[2,4,6,8,10,-1,-1,-1,-1,-1,-1],"split_conditions":[5.051949E-1,3.93794E-1,5.583194E-1,-6.7585754E-1,2.905569E-1,-7.857387E-2,-6.9697835E-3,-6.424192E-3,7.690399E-2,-5.9471775E-2,4.8919644E-2],"split_indices":[16,18,22,11,9,0,0,0,0,0,0],"split_type":[0,0,0,0,0,0,0,0,0,0,0],"sum_hessian":[1.2701154E1,9.627426E0,3.0737274E0,6.7527337E0,2.8746927E0,1.9853547E0,1.0883727E0,1.1458513E0,5.6068826E0,1.4065045E0,1.468188E0],"tree_param":{"num_deleted":"0","num_feature":"53","num_nodes":"11","size_leaf_vector":"0"}},{"base_weights":[1.0764197E-1,5.4613423E-1,-3.2706466E-1,-2.8900206E-1,8.5169613E-1,-1.1758821E0,3.8283074E-1,-3.117173E-1,-1.4577914E0,9.3054545E-1,-3.3019847E-1],"categories":[],"categories_nodes":[],"categories_segments":[],"categories_sizes":[],"default_left":[1,1,1,0,0,1,1,0,0,0,0],"id":34,"left_children":[1,3,5,-1,-1,7,9,-1,-1,-1,-1],"loss_changes":[2.703283E0,2.0243382E0,4.8348036E0,0E0,0E0,4.1276026E-1,2.1493986E0,0E0,0E0,0E0,0E0],"parents":[2147483647,0,0,1,1,2,2,5,5,6,6],"right_children":[2,4,6,-1,-1,8,10,-1,-1,-1,-1],"split_conditions":[1.71113E-2,-6.374012E-1,3.5522717E-1,-2.3842672E-2,7.0264935E-2,-1.1465528E-1,6.65373E-1,-2.571668E-2,-1.202678E-1,7.677E-2,-2.7241375E-2],"split_indices":[46,19,27,0,0,26,7,0,0,0,0],"split_type":[0,0,0,0,0,0,0,0,0,0,0],"sum_hessian":[1.2244786E1,5.9682417E0,6.2765446E0,1.6132463E0,4.3549957E0,2.5596142E0,3.7169304E0,1.1475748E0,1.4120394E0,1.9296255E0,1.7873049E0],"tree_param":{"num_deleted":"0","num_feature":"53","num_nodes":"11","size_leaf_vector":"0"}},{"base_weights":[-9.996348E-2,1.7615911E-1,-6.680178E-1,5.7549965E-1,-3.3559337E-1,2.7813014E-1,-1.0344162E0,-2.344728E-2,9.407811E-1,-9.991042E-1,1.9474362E-1,-1.2890205E0,-3.0012545E-1],"categories":[],"categories_nodes":[],"categories_segments":[],"categories_sizes":[],"default_left":[1,1,1,1,1,0,1,0,0,0,0,0,0],"id":35,"left_children":[1,3,5,7,9,-1,11,-1,-1,-1,-1,-1,-1],"loss_changes":[2.3595412E0,2.32037E0,1.9807277E0,1.3818083E0,2.0222757E0,0E0,3.1090426E-1,0E0,0E0,0E0,0E0,0E0,0E0],"parents":[2147483647,0,0,1,1,2,2,3,3,4,4,6,6],"right_children":[2,4,6,8,10,-1,12,-1,-1,-1,-1,-1,-1],"split_conditions":[1.8455246E-1,1.7043492E-1,-6.2203187E-1,-3.887233E-1,2.638455E-1,2.2945737E-2,-2.8649074E-1,-1.9344008E-3,7.761444E-2,-8.24261E-2,1.606635E-2,-1.063442E-1,-2.476035E-2],"split_indices":[26,34,46,48,34,0,25,0,0,0,0,0,0],"split_type":[0,0,0,0,0,0,0,0,0,0,0,0,0],"sum_hessian":[1.3292802E1,9.4090805E0,3.8837209E0,5.2150254E0,4.194055E0,1.1513935E0,2.7323275E0,2.3301392E0,2.8848863E0,1.4704515E0,2.7236035E0,1.4678937E0,1.2644337E0],"tree_param":{"num_deleted":"0","num_feature":"53","num_nodes":"13","size_leaf_vector":"0"}},{"base_weights":[2.9966775E-2,8.437257E-1,-1.9791752E-1,-1.0202245E0,1.6920884E-1,-2.0708488E-1,-1.3067298E0,8.5696125E-1,-3.9357403E-1],"categories":[],"categories_nodes":[],"categories_segments":[],"categories_sizes":[],"default_left":[1,0,1,1,1,0,0,0,0],"id":36,"left_children":[1,-1,3,5,7,-1,-1,-1,-1],"loss_changes":[2.7683287E0,0E0,3.7255254E0,6.088023E-1,3.8184657E0,0E0,0E0,0E0,0E0],"parents":[2147483647,0,0,2,2,3,3,4,4],"right_children":[2,-1,4,6,8,-1,-1,-1,-1],"split_conditions":[-5.89746E-1,6.960737E-2,-1.06690824E-1,-3.3072975E-1,3.9473465E-1,-1.7084504E-2,-1.07805215E-1,7.0699304E-2,-3.2469857E-2],"split_indices":[17,0,32,49,6,0,0,0,0],"split_type":[0,0,0,0,0,0,0,0,0],"sum_hessian":[1.30277195E1,2.2589033E0,1.0768816E1,2.774782E0,7.994034E0,1.1718146E0,1.6029673E0,3.3623416E0,4.6316924E0],"tree_param":{"num_deleted":"0","num_feature":"53","num_nodes":"9","size_leaf_vector":"0"}},{"base_weights":[-1.3807225E-1,-2.7378115E-1,8.1118965E-1,-4.4612867E-1,4.0241897E-1,-7.5434786E-1,-1.15548275E-1,6.3458115E-1,-4.9932007E-2],"categories":[],"categories_nodes":[],"categories_segments":[],"categories_sizes":[],"default_left":[1,1,0,1,1,0,0,0,0],"id":37,"left_children":[1,3,-1,5,7,-1,-1,-1,-1],"loss_changes":[2.0717688E0,1.7306964E0,0E0,1.0418794E0,3.708055E-1,0E0,0E0,0E0,0E0],"parents":[2147483647,0,0,1,1,3,3,4,4],"right_children":[2,4,-1,6,8,-1,-1,-1,-1],"split_conditions":[5.656682E-1,6.1279845E-1,6.692315E-2,2.2626687E-2,-8.1111684E-2,-6.22337E-2,-9.532733E-3,5.2352946E-2,-4.1193906E-3],"split_indices":[18,50,0,2,1,0,0,0,0],"split_type":[0,0,0,0,0,0,0,0,0],"sum_hessian":[1.3358278E1,1.2309996E1,1.0482829E0,1.0080862E1,2.2291334E0,4.55349E0,5.527372E0,1.206873E0,1.0222602E0],"tree_param":{"num_deleted":"0","num_feature":"53","num_nodes":"9","size_leaf_vector":"0"}},{"base_weights":[-1.4571045E-1,-9.9628717E-1,4.082389E-2,2.617584E-1,-6.757855E-1,-1.9235041E-2,7.054497E-1,-1.5062684E-1,-8.589949E-1],"categories":[],"categories_nodes":[],"categories_segments":[],"categories_sizes":[],"default_left":[1,0,1,1,1,0,0,0,0],"id":38,"left_children":[1,-1,3,5,7,-1,-1,-1,-1],"loss_changes":[2.1989596E0,0E0,2.0953112E0,1.2581251E0,1.722058E-1,0E0,0E0,0E0,0E0],"parents":[2147483647,0,0,2,2,3,3,4,4],"right_children":[2,-1,4,6,8,-1,-1,-1,-1],"split_conditions":[-6.3573825E-1,-8.2193695E-2,4.4150683E-1,8.120478E-2,6.6910036E-2,-1.5868909E-3,5.8199603E-2,-1.2426714E-2,-7.0867084E-2],"split_indices":[50,0,0,2,20,0,0,0,0],"split_type":[0,0,0,0,0,0,0,0,0],"sum_hessian":[1.2603069E1,1.4860053E0,1.1117064E1,8.982452E0,2.1346118E0,6.0852566E0,2.8971963E0,1.0233625E0,1.1112493E0],"tree_param":{"num_deleted":"0","num_feature":"53","num_nodes":"9","size_leaf_vector":"0"}},{"base_weights":[-5.6226484E-2,3.4745476E-1,-6.694796E-1,-5.172173E-1,5.0881493E-1,-9.1483635E-1,2.6478085E-1,8.6900437E-1,1.05121985E-1,-2.1834357E-1,-1.2118719E0],"categories":[],"categories_nodes":[],"categories_segments":[],"categories_sizes":[],"default_left":[1,1,1,0,1,1,0,0,0,0,0],"id":39,"left_children":[1,3,5,-1,7,9,-1,-1,-1,-1,-1],"loss_changes":[3.907615E0,1.6040531E0,1.67135E0,0E0,1.1595974E0,8.0337095E-1,0E0,0E0,0E0,0E0,0E0],"parents":[2147483647,0,0,1,1,2,2,4,4,5,5],"right_children":[2,4,6,-1,8,10,-1,-1,-1,-1,-1],"split_conditions":[2.9457137E-1,-1.05259165E-1,2.6636392E-1,-4.267043E-2,9.810303E-3,4.4150683E-1,2.184442E-2,7.169286E-2,8.672564E-3,-1.8013345E-2,-9.997943E-2],"split_indices":[1,35,35,0,28,0,0,0,0,0,0],"split_type":[0,0,0,0,0,0,0,0,0,0,0],"sum_hessian":[1.3844963E1,8.610453E0,5.2345104E0,1.0073048E0,7.603148E0,4.1622148E0,1.0722955E0,3.4089355E0,4.1942124E0,1.7631152E0,2.3990996E0],"tree_param":{"num_deleted":"0","num_feature":"53","num_nodes":"11","size_leaf_vector":"0"}},{"base_weights":[8.18325E-2,-7.718428E-1,2.4086806E-1,5.410699E-1,-2.7495193E-1,-2.6887003E-1,7.5911194E-1,-6.034047E-1,3.7454605E-1],"categories":[],"categories_nodes":[],"categories_segments":[],"categories_sizes":[],"default_left":[1,0,1,1,1,0,0,0,0],"id":40,"left_children":[1,-1,3,5,7,-1,-1,-1,-1],"loss_changes":[1.9608104E0,0E0,1.9732838E0,1.5789087E0,1.2921474E0,0E0,0E0,0E0,0E0],"parents":[2147483647,0,0,2,2,3,3,4,4],"right_children":[2,-1,4,6,8,-1,-1,-1,-1],"split_conditions":[-7.27923E-1,-6.3677035E-2,3.521741E-1,-2.0854709E-1,5.4155374E-1,-2.2181777E-2,6.2626734E-2,-4.978089E-2,3.090005E-2],"split_indices":[12,0,6,30,25,0,0,0,0],"split_type":[0,0,0,0,0,0,0,0,0],"sum_hessian":[1.2073337E1,1.2908746E0,1.0782462E1,6.784818E0,3.9976442E0,1.3896621E0,5.395156E0,2.7021353E0,1.295509E0],"tree_param":{"num_deleted":"0","num_feature":"53","num_nodes":"9","size_leaf_vector":"0"}},{"base_weights":[9.8242015E-2,6.658219E-1,-1.0552785E-1,1.860906E-1,7.6921326E-1,-4.451233E-1,4.7129196E-1,-1.1004614E0,2.0333295E-1,8.6343694E-1,-1.6930155E-1],"categories":[],"categories_nodes":[],"categories_segments":[],"categories_sizes":[],"default_left":[1,1,1,0,0,1,1,0,0,0,0],"id":41,"left_children":[1,3,5,-1,-1,7,9,-1,-1,-1,-1],"loss_changes":[1.7194997E0,5.0489664E-2,2.4342573E0,0E0,0E0,3.4798274E0,1.3253167E0,0E0,0E0,0E0,0E0],"parents":[2147483647,0,0,1,1,2,2,5,5,6,6],"right_children":[2,4,6,-1,-1,8,10,-1,-1,-1,-1],"split_conditions":[-4.9942517E-1,-7.075677E-1,4.01041E-1,1.5352475E-2,6.34601E-2,3.315061E-1,5.069008E-1,-9.078807E-2,1.677497E-2,7.123355E-2,-1.3967379E-2],"split_indices":[23,43,31,0,0,38,33,0,0,0,0],"split_type":[0,0,0,0,0,0,0,0,0,0,0],"sum_hessian":[1.3259886E1,2.9038875E0,1.0355998E1,1.0113118E0,1.8925759E0,6.6620903E0,3.6939075E0,2.9667783E0,3.695312E0,2.0755012E0,1.6184064E0],"tree_param":{"num_deleted":"0","num_feature":"53","num_nodes":"11","size_leaf_vector":"0"}},{"base_weights":[1.12926185E-1,-7.238521E-1,3.142855E-1,7.336155E-1,-1.7431082E-1,8.6329764E-1,1.2097826E-1,-4.5299524E-1,4.188175E-1],"categories":[],"categories_nodes":[],"categories_segments":[],"categories_sizes":[],"default_left":[1,0,1,1,1,0,0,0,0],"id":42,"left_children":[1,-1,3,5,7,-1,-1,-1,-1],"loss_changes":[2.0021942E0,0E0,2.010152E0,3.0360246E-1,1.0246476E0,0E0,0E0,0E0,0E0],"parents":[2147483647,0,0,2,2,3,3,4,4],"right_children":[2,-1,4,6,8,-1,-1,-1,-1],"split_conditions":[-7.27923E-1,-5.97178E-2,8.202346E-2,2.086297E-1,5.3280467E-1,7.122206E-2,9.9807065E-3,-3.737211E-2,3.4552444E-2],"split_indices":[12,0,0,42,22,0,0,0,0],"split_type":[0,0,0,0,0,0,0,0,0],"sum_hessian":[9.5327635E0,1.3456963E0,8.187068E0,4.1359653E0,4.0511026E0,3.075746E0,1.060219E0,2.916861E0,1.1342413E0],"tree_param":{"num_deleted":"0","num_feature":"53","num_nodes":"9","size_leaf_vector":"0"}},{"base_weights":[-9.574002E-2,4.6250352E-1,-3.4378204E-1,-2.3683868E-1,7.8619546E-1,6.623371E-1,-5.6443644E-1,-9.5489466E-1,-1.3356149E-1],"categories":[],"categories_nodes":[],"categories_segments":[],"categories_sizes":[],"default_left":[1,1,1,0,0,0,1,0,0],"id":43,"left_children":[1,3,5,-1,-1,-1,7,-1,-1],"loss_changes":[1.8045326E0,1.1103115E0,2.327839E0,0E0,0E0,0E0,1.1777234E0,0E0,0E0],"parents":[2147483647,0,0,1,1,2,2,6,6],"right_children":[2,4,6,-1,-1,-1,8,-1,-1],"split_conditions":[-6.7639284E-2,-3.895859E-1,-5.613062E-1,-1.9539192E-2,6.4861126E-2,5.4642815E-2,-3.1188294E-1,-7.877881E-2,-1.1018824E-2],"split_indices":[42,42,48,0,0,0,19,0,0],"split_type":[0,0,0,0,0,0,0,0,0],"sum_hessian":[1.0883858E1,3.0822735E0,7.8015842E0,1.060141E0,2.0221326E0,1.0432007E0,6.7583838E0,2.907466E0,3.8509176E0],"tree_param":{"num_deleted":"0","num_feature":"53","num_nodes":"9","size_leaf_vector":"0"}},{"base_weights":[2.6276957E-3,4.3663147E-1,-2.4635196E-1,-4.263581E-1,7.3120946E-1,-6.351009E-1,2.2256927E-1,1.7071442E-1,8.450557E-1,1.0224134E-1,-1.0042773E0,-5.91375E-1,6.687504E-1],"categories":[],"categories_nodes":[],"categories_segments":[],"categories_sizes":[],"default_left":[1,1,1,0,1,1,1,0,0,0,0,0,0],"id":44,"left_children":[1,3,5,-1,7,9,11,-1,-1,-1,-1,-1,-1],"loss_changes":[1.7052896E0,1.7737166E0,1.9706556E0,0E0,1.528163E-1,1.6667964E0,2.3162568E0,0E0,0E0,0E0,0E0,0E0,0E0],"parents":[2147483647,0,0,1,1,2,2,4,4,5,5,6,6],"right_children":[2,4,6,-1,8,10,12,-1,-1,-1,-1,-1,-1],"split_conditions":[-3.8516268E-2,-1.01735994E-1,1.1532487E-1,-3.5174545E-2,-3.56425E-1,3.1874615E-1,-5.192803E-2,1.4083941E-2,6.9717094E-2,8.43491E-3,-8.2852885E-2,-4.878844E-2,5.517191E-2],"split_indices":[49,35,42,0,42,11,18,0,0,0,0,0,0],"split_type":[0,0,0,0,0,0,0,0,0,0,0,0,0],"sum_hessian":[1.378579E1,4.7508173E0,9.034973E0,1.0951464E0,3.655671E0,4.74601E0,4.288963E0,1.039155E0,2.6165159E0,1.8246871E0,2.9213228E0,1.4034004E0,2.8855627E0],"tree_param":{"num_deleted":"0","num_feature":"53","num_nodes":"13","size_leaf_vector":"0"}},{"base_weights":[-1.0717412E-1,1.6365309E-1,-8.4683573E-1,-5.161766E-1,4.714152E-1,-1.049785E0,-1.95614E-1,1.7742273E-1,-9.438518E-1,7.0783985E-1,-3.7907284E-1],"categories":[],"categories_nodes":[],"categories_segments":[],"categories_sizes":[],"default_left":[1,1,1,1,1,0,0,0,0,0,0],"id":45,"left_children":[1,3,5,7,9,-1,-1,-1,-1,-1,-1],"loss_changes":[2.7614799E0,2.4239397E0,2.7985334E-1,1.2724913E0,1.816017E0,0E0,0E0,0E0,0E0,0E0,0E0],"parents":[2147483647,0,0,1,1,2,2,3,3,4,4],"right_children":[2,4,6,8,10,-1,-1,-1,-1,-1,-1],"split_conditions":[4.5865273E-1,-1.5783954E-1,1.6438863E-1,-5.7102764E-1,1.9932453E-1,-8.660727E-2,-1.6138155E-2,1.4637376E-2,-7.7867776E-2,5.839679E-2,-3.127351E-2],"split_indices":[0,34,21,19,35,0,0,0,0,0,0],"split_type":[0,0,0,0,0,0,0,0,0,0,0],"sum_hessian":[1.209348E1,9.422263E0,2.671217E0,2.725216E0,6.6970468E0,1.5699332E0,1.1012838E0,1.2626344E0,1.4625815E0,5.3715506E0,1.3254966E0],"tree_param":{"num_deleted":"0","num_feature":"53","num_nodes":"11","size_leaf_vector":"0"}},{"base_weights":[5.0821878E-2,7.1289974E-1,-2.6352015E-1,1.6669749E-1,8.24028E-1,-9.1881186E-1,4.948585E-2,-7.530562E-1,4.433209E-1],"categories":[],"categories_nodes":[],"categories_segments":[],"categories_sizes":[],"default_left":[1,1,1,0,0,0,1,0,0],"id":46,"left_children":[1,3,5,-1,-1,-1,7,-1,-1],"loss_changes":[2.9447112E0,1.3786626E-1,2.0375257E0,0E0,0E0,0E0,2.711173E0,0E0,0E0],"parents":[2147483647,0,0,1,1,2,2,6,6],"right_children":[2,4,6,-1,-1,-1,8,-1,-1],"split_conditions":[-3.2484305E-1,-5.2836585E-1,-2.16847E-1,1.3752543E-2,6.7982316E-2,-7.580198E-2,-3.562202E-1,-6.2127143E-2,3.6573976E-2],"split_indices":[49,0,23,0,0,0,11,0,0],"split_type":[0,0,0,0,0,0,0,0,0],"sum_hessian":[1.2246505E1,3.5343742E0,8.712131E0,1.0201788E0,2.5141952E0,2.1905897E0,6.5215406E0,1.8465666E0,4.674974E0],"tree_param":{"num_deleted":"0","num_feature":"53","num_nodes":"9","size_leaf_vector":"0"}},{"base_weights":[-2.0351247E-1,-3.5173574E-1,4.3334943E-1,3.130534E-1,-5.611273E-1,-2.8891745E-1,6.7912304E-1,-8.864128E-1,1.2896797E-3],"categories":[],"categories_nodes":[],"categories_segments":[],"categories_sizes":[],"default_left":[1,1,0,1,1,0,0,0,0],"id":47,"left_children":[1,3,-1,5,7,-1,-1,-1,-1],"loss_changes":[1.4557787E0,1.8115927E0,0E0,9.579836E-1,1.701695E0,0E0,0E0,0E0,0E0],"parents":[2147483647,0,0,1,1,3,3,4,4],"right_children":[2,4,-1,6,8,-1,-1,-1,-1],"split_conditions":[4.0331456E-1,-4.2802042E-1,3.5751328E-2,-1.0587714E0,1.4235047E-1,-2.383569E-2,5.6027655E-2,-7.312906E-2,1.0639858E-4],"split_indices":[34,49,0,23,2,0,0,0,0],"split_type":[0,0,0,0,0,0,0,0,0],"sum_hessian":[1.2807046E1,1.0752267E1,2.0547786E0,2.456897E0,8.29537E0,1.008788E0,1.448109E0,4.8906713E0,3.4046988E0],"tree_param":{"num_deleted":"0","num_feature":"53","num_nodes":"9","size_leaf_vector":"0"}},{"base_weights":[1.3908664E-2,6.824874E-1,-2.28154E-1,7.8234905E-1,1.9270931E-1,-5.254272E-1,7.5514324E-2,1.5719908E-1,-8.1960034E-1,-6.435126E-1,4.838801E-1],"categories":[],"categories_nodes":[],"categories_segments":[],"categories_sizes":[],"default_left":[1,1,1,0,0,1,1,0,0,0,0],"id":48,"left_children":[1,3,5,-1,-1,7,9,-1,-1,-1,-1],"loss_changes":[2.4245348E0,4.375124E-2,1.0364714E0,0E0,0E0,1.2745527E0,2.1719787E0,0E0,0E0,0E0,0E0],"parents":[2147483647,0,0,1,1,2,2,5,5,6,6],"right_children":[2,4,6,-1,-1,8,10,-1,-1,-1,-1],"split_conditions":[-3.191319E-1,-3.0901557E-1,8.275984E-2,6.45438E-2,1.5898518E-2,6.0378946E-4,-2.7709338E-1,1.2968925E-2,-6.761703E-2,-5.3089794E-2,3.992011E-2],"split_indices":[49,23,9,0,0,49,22,0,0,0,0],"split_type":[0,0,0,0,0,0,0,0,0,0,0],"sum_hessian":[1.30191E1,2.977037E0,1.0042063E1,1.9766589E0,1.000378E0,4.7054453E0,5.3366175E0,1.5573204E0,3.1481252E0,1.7244614E0,3.6121562E0],"tree_param":{"num_deleted":"0","num_feature":"53","num_nodes":"11","size_leaf_vector":"0"}},{"base_weights":[-9.5348306E-2,4.149671E-1,-3.2135987E-1,-2.7159798E-1,7.7767426E-1,2.7291584E-1,-6.7134774E-1,-3.4405255E-1,7.2483176E-1,-1.0118915E0,2.0196871E-1],"categories":[],"categories_nodes":[],"categories_segments":[],"categories_sizes":[],"default_left":[1,1,1,0,0,1,1,0,0,0,0],"id":49,"left_children":[1,3,5,-1,-1,7,9,-1,-1,-1,-1],"loss_changes":[1.664003E0,1.3342853E0,2.213438E0,0E0,0E0,1.4563584E0,2.117337E0,0E0,0E0,0E0,0E0],"parents":[2147483647,0,0,1,1,2,2,5,5,6,6],"right_children":[2,4,6,-1,-1,8,10,-1,-1,-1,-1],"split_conditions":[-1.9612485E-1,-8.4436245E-2,-8.641805E-2,-2.2406835E-2,6.415813E-2,-1.7821977E-1,2.8649554E-1,-2.8384337E-2,5.9798624E-2,-8.348105E-2,1.6662419E-2],"split_indices":[3,11,26,0,0,26,51,0,0,0,0],"split_type":[0,0,0,0,0,0,0,0,0,0,0],"sum_hessian":[1.2271083E1,3.5099232E0,8.76116E0,1.3001236E0,2.2097998E0,3.3289132E0,5.432246E0,1.5083506E0,1.8205626E0,3.79409E0,1.6381564E0],"tree_param":{"num_deleted":"0","num_feature":"53","num_nodes":"11","size_leaf_vector":"0"}},{"base_weights":[-9.874544E-2,1.656411E-1,-5.407421E-1,-5.103974E-1,5.712135E-1,-8.801018E-1,-2.724159E-2,1.2997611E-1,-9.4111484E-1,4.291036E-2,8.0933005E-1,-2.8378487E-1,2.3320629E-1],"categories":[],"categories_nodes":[],"categories_segments":[],"categories_sizes":[],"default_left":[1,1,1,1,1,0,1,0,0,0,0,0,0],"id":50,"left_children":[1,3,5,7,9,-1,11,-1,-1,-1,-1,-1,-1],"loss_changes":[1.6334418E0,2.7680175E0,8.7858236E-1,1.2021371E0,7.348107E-1,0E0,2.7283195E-1,0E0,0E0,0E0,0E0,0E0,0E0],"parents":[2147483647,0,0,1,1,2,2,3,3,4,4,6,6],"right_children":[2,4,6,8,10,-1,12,-1,-1,-1,-1,-1,-1],"split_conditions":[4.075033E-1,-5.576722E-1,4.1331208E-1,-6.7994964E-1,-4.2574424E-1,-7.2608404E-2,6.2335706E-1,1.0723029E-2,-7.764198E-2,3.5401047E-3,6.6769734E-2,-2.3412252E-2,1.9239519E-2],"split_indices":[17,13,31,13,50,0,13,0,0,0,0,0,0],"split_type":[0,0,0,0,0,0,0,0,0,0,0,0,0],"sum_hessian":[1.2211533E1,8.032202E0,4.1793313E0,2.9149246E0,5.1172767E0,2.0864935E0,2.0928378E0,1.4529582E0,1.4619665E0,1.9565458E0,3.1607308E0,1.009182E0,1.0836557E0],"tree_param":{"num_deleted":"0","num_feature":"53","num_nodes":"13","size_leaf_vector":"0"}},{"base_weights":[5.6434434E-2,-2.2663328E-1,6.1514705E-1,-7.220336E-1,3.6406374E-1,7.9218745E-1,1.9313318E-1,7.3694736E-2,-9.920227E-1,6.9744223E-1,-2.0076714E-1],"categories":[],"categories_nodes":[],"categories_segments":[],"categories_sizes":[],"default_left":[1,1,1,1,1,0,0,0,0,0,0],"id":51,"left_children":[1,3,5,7,9,-1,-1,-1,-1,-1,-1],"loss_changes":[1.8268509E0,2.5490468E0,1.3518238E-1,1.0579653E0,9.362224E-1,0E0,0E0,0E0,0E0,0E0,0E0],"parents":[2147483647,0,0,1,1,2,2,3,3,4,4],"right_children":[2,4,6,8,10,-1,-1,-1,-1,-1,-1],"split_conditions":[3.707711E-1,3.250057E-1,-4.5690572E-1,-2.5627685E-1,2.2926366E-1,6.5355465E-2,1.5933488E-2,6.079816E-3,-8.184188E-2,5.7538986E-2,-1.656329E-2],"split_indices":[11,50,48,38,35,0,0,0,0,0,0],"split_type":[0,0,0,0,0,0,0,0,0,0,0],"sum_hessian":[9.669622E0,6.8124895E0,2.8571332E0,3.584191E0,3.2282982E0,1.3948257E0,1.4623075E0,1.0922096E0,2.4919815E0,1.8824466E0,1.3458515E0],"tree_param":{"num_deleted":"0","num_feature":"53","num_nodes":"11","size_leaf_vector":"0"}},{"base_weights":[-3.133397E-2,-6.735814E-1,3.0987132E-1,2.1768805E-1,-1.1041223E0,7.6025105E-1,-2.4817933E-1,8.9779675E-1,1.5569498E-1,-6.9129467E-1,1.5177082E-1],"categories":[],"categories_nodes":[],"categories_segments":[],"categories_sizes":[],"default_left":[1,1,1,0,0,1,1,0,0,0,0],"id":52,"left_children":[1,3,5,-1,-1,7,9,-1,-1,-1,-1],"loss_changes":[2.4313722E0,1.7115864E0,2.0255907E0,0E0,0E0,2.169981E-1,8.1701094E-1,0E0,0E0,0E0,0E0],"parents":[2147483647,0,0,1,1,2,2,5,5,6,6],"right_children":[2,4,6,-1,-1,8,10,-1,-1,-1,-1],"split_conditions":[-1.2743285E-1,-2.692135E-1,3.6059874E-1,1.7959265E-2,-9.109009E-2,1.5047695E-1,1.1790016E-1,7.406823E-2,1.2844836E-2,-5.7031814E-2,1.2521093E-2],"split_indices":[30,3,6,0,0,30,28,0,0,0,0],"split_type":[0,0,0,0,0,0,0,0,0,0,0],"sum_hessian":[9.142679E0,2.8340502E0,6.3086295E0,1.0841398E0,1.7499104E0,3.2905936E0,3.018036E0,2.2855456E0,1.0050478E0,1.0861783E0,1.9318576E0],"tree_param":{"num_deleted":"0","num_feature":"53","num_nodes":"11","size_leaf_vector":"0"}},{"base_weights":[-2.6435588E-2,-4.152913E-1,4.802673E-1,1.3199578E-1,-1.0680186E0,8.6432403E-1,-8.8583946E-2,-4.6247405E-1,5.520606E-1,-1.2710843E0,-2.8282815E-1,-3.5733593E-1,2.3657565E-1],"categories":[],"categories_nodes":[],"categories_segments":[],"categories_sizes":[],"default_left":[1,1,1,1,1,0,1,0,0,0,0,0,0],"id":53,"left_children":[1,3,5,7,9,-1,11,-1,-1,-1,-1,-1,-1],"loss_changes":[2.6938312E0,2.891293E0,1.3787823E0,1.5233114E0,2.1789598E-1,0E0,3.737342E-1,0E0,0E0,0E0,0E0,0E0,0E0],"parents":[2147483647,0,0,1,1,2,2,3,3,4,4,6,6],"right_children":[2,4,6,8,10,-1,12,-1,-1,-1,-1,-1,-1],"split_conditions":[2.8618318E-1,-1.2775476E-4,3.8376456E-1,-7.00032E-1,4.803664E-1,7.1306735E-2,6.3298917E-1,-3.815411E-2,4.5545E-2,-1.0486446E-1,-2.3333324E-2,-2.9480215E-2,1.9517493E-2],"split_indices":[52,14,48,14,29,0,20,0,0,0,0,0,0],"split_type":[0,0,0,0,0,0,0,0,0,0,0,0,0],"sum_hessian":[1.1659623E1,6.6990323E0,4.9605904E0,4.0777617E0,2.6212707E0,2.6512163E0,2.309374E0,1.6465825E0,2.431179E0,1.5909872E0,1.0302836E0,1.2101781E0,1.099196E0],"tree_param":{"num_deleted":"0","num_feature":"53","num_nodes":"13","size_leaf_vector":"0"}},{"base_weights":[-1.20320385E-2,-6.593022E-1,2.0725586E-1,-8.951804E-1,-9.144118E-2,8.196465E-1,-1.18455164E-1,-7.8355443E-1,3.9779773E-1],"categories":[],"categories_nodes":[],"categories_segments":[],"categories_sizes":[],"default_left":[1,1,1,0,0,0,1,0,0],"id":54,"left_children":[1,3,5,-1,-1,-1,7,-1,-1],"loss_changes":[1.7057812E0,3.2490027E-1,1.8959085E0,0E0,0E0,0E0,2.6331055E0,0E0,0E0],"parents":[2147483647,0,0,1,1,2,2,6,6],"right_children":[2,4,6,-1,-1,-1,8,-1,-1],"split_conditions":[-6.919834E-1,-3.2463568E-1,-5.4005563E-2,-7.385238E-2,-7.5438973E-3,6.7620836E-2,4.1404036E-1,-6.464324E-2,3.2818314E-2],"split_indices":[14,0,16,0,0,0,8,0,0],"split_type":[0,0,0,0,0,0,0,0,0],"sum_hessian":[1.0055047E1,2.0367198E0,8.018328E0,1.0317456E0,1.0049742E0,2.2574549E0,5.760873E0,2.2912436E0,3.469629E0],"tree_param":{"num_deleted":"0","num_feature":"53","num_nodes":"9","size_leaf_vector":"0"}},{"base_weights":[-2.0587772E-1,-3.4985495E-1,7.7973473E-1,6.0766417E-1,-4.839867E-1,-6.4084417E-1,3.0622914E-1],"categories":[],"categories_nodes":[],"categories_segments":[],"categories_sizes":[],"default_left":[1,1,0,0,1,0,0],"id":55,"left_children":[1,3,-1,-1,5,-1,-1],"loss_changes":[2.2523572E0,1.9460258E0,0E0,0E0,1.6636243E0,0E0,0E0],"parents":[2147483647,0,0,1,1,4,4],"right_children":[2,4,-1,-1,6,-1,-1],"split_conditions":[7.299443E-1,-6.612275E-1,6.432812E-2,5.0132297E-2,5.1366633E-1,-5.2869644E-2,2.5263906E-2],"split_indices":[13,40,0,0,18,0,0],"split_type":[0,0,0,0,0,0,0],"sum_hessian":[1.2949843E1,1.1862082E1,1.0877624E0,1.0237238E0,1.0838357E1,9.200992E0,1.6373658E0],"tree_param":{"num_deleted":"0","num_feature":"53","num_nodes":"7","size_leaf_vector":"0"}},{"base_weights":[2.1328258E-3,-3.021312E-1,5.577787E-1,1.9229583E-1,-7.3411196E-1,9.959196E-2,7.71201E-1,-2.8667796E-1,7.471588E-1,-2.0116708E-1,-9.121052E-1],"categories":[],"categories_nodes":[],"categories_segments":[],"categories_sizes":[],"default_left":[1,1,1,1,1,0,0,0,0,0,0],"id":56,"left_children":[1,3,5,7,9,-1,-1,-1,-1,-1,-1],"loss_changes":[2.2022076E0,1.9398553E0,3.7376463E-1,1.4684294E0,2.6256323E-1,0E0,0E0,0E0,0E0,0E0,0E0],"parents":[2147483647,0,0,1,1,2,2,3,3,4,4],"right_children":[2,4,6,8,10,-1,-1,-1,-1,-1,-1],"split_conditions":[3.0629468E-1,2.4739018E-1,2.2037325E-2,-4.429233E-1,-1.26463175E-2,8.216337E-3,6.3624084E-2,-2.3650933E-2,6.1640605E-2,-1.6596284E-2,-7.524868E-2],"split_indices":[51,10,42,10,28,0,0,0,0,0,0],"split_type":[0,0,0,0,0,0,0,0,0,0,0],"sum_hessian":[1.1029154E1,7.421497E0,3.607657E0,3.7193434E0,3.7021534E0,1.6124986E0,1.9951584E0,2.2555892E0,1.4637543E0,1.4602095E0,2.2419438E0],"tree_param":{"num_deleted":"0","num_feature":"53","num_nodes":"11","size_leaf_vector":"0"}},{"base_weights":[1.2125731E-1,3.7623513E-1,-3.403103E-1,1.8858556E-2,7.582767E-1,-8.680125E-1,3.6257133E-1,5.759512E-1,-5.216813E-1,1.6237792E-1,8.882131E-1],"categories":[],"categories_nodes":[],"categories_segments":[],"categories_sizes":[],"default_left":[1,1,1,1,1,0,0,0,0,0,0],"id":57,"left_children":[1,3,5,7,9,-1,-1,-1,-1,-1,-1],"loss_changes":[1.6915897E0,1.218975E0,2.262966E0,2.0146708E0,1.9183469E-1,0E0,0E0,0E0,0E0,0E0,0E0],"parents":[2147483647,0,0,1,1,2,2,3,3,4,4],"right_children":[2,4,6,8,10,-1,-1,-1,-1,-1,-1],"split_conditions":[5.538975E-1,2.8023893E-1,3.7864912E-1,-4.2623222E-2,-4.4197062E-1,-7.161103E-2,2.9912136E-2,4.7515977E-2,-4.303871E-2,1.3396179E-2,7.3277585E-2],"split_indices":[38,22,21,48,21,0,0,0,0,0,0],"split_type":[0,0,0,0,0,0,0,0,0,0,0],"sum_hessian":[1.2285407E1,8.032818E0,4.2525897E0,4.692569E0,3.340249E0,2.294794E0,1.9577957E0,2.2786398E0,2.413929E0,1.0006876E0,2.3395615E0],"tree_param":{"num_deleted":"0","num_feature":"53","num_nodes":"11","size_leaf_vector":"0"}},{"base_weights":[-1.5701021E-1,-4.3228963E-1,3.4306163E-1,2.578663E-1,-6.895279E-1,7.1128017E-1,-3.8968077E-1,-2.4583772E-1,6.1025447E-1,-8.9317393E-1,4.300994E-2,1.0868624E-1,8.878646E-1],"categories":[],"categories_nodes":[],"categories_segments":[],"categories_sizes":[],"default_left":[1,1,1,1,1,1,0,0,0,0,0,0,0],"id":58,"left_children":[1,3,5,7,9,11,-1,-1,-1,-1,-1,-1,-1],"loss_changes":[1.9496678E0,1.7547053E0,1.681112E0,7.07288E-1,1.0442774E0,3.0967355E-1,0E0,0E0,0E0,0E0,0E0,0E0,0E0],"parents":[2147483647,0,0,1,1,2,2,3,3,4,4,5,5],"right_children":[2,4,6,8,10,12,-1,-1,-1,-1,-1,-1,-1],"split_conditions":[3.789272E-1,-4.2802042E-1,7.5829345E-1,-2.630953E-1,-7.046709E-2,3.4860086E-1,-3.2148667E-2,-2.0281613E-2,5.0345995E-2,-7.368685E-2,3.5483202E-3,8.966615E-3,7.324883E-2],"split_indices":[15,49,14,9,50,51,0,0,0,0,0,0,0],"split_type":[0,0,0,0,0,0,0,0,0,0,0,0,0],"sum_hessian":[1.2085663E1,7.8822107E0,4.2034526E0,2.13953E0,5.7426805E0,2.8170938E0,1.3863587E0,1.0051435E0,1.1343864E0,4.3219023E0,1.4207786E0,1.0045526E0,1.8125412E0],"tree_param":{"num_deleted":"0","num_feature":"53","num_nodes":"13","size_leaf_vector":"0"}},{"base_weights":[-1.801609E-1,1.4944774E-1,-6.9856864E-1,-1.0474006E-1,7.814711E-1,-1.0231481E0,-1.7132977E-1,-6.321457E-1,3.868361E-1,2.9050913E-1,-5.39122E-1],"categories":[],"categories_nodes":[],"categories_segments":[],"categories_sizes":[],"default_left":[1,1,1,1,0,0,1,0,0,0,0],"id":59,"left_children":[1,3,5,7,-1,-1,9,-1,-1,-1,-1],"loss_changes":[2.221344E0,1.4309227E0,6.789298E-1,2.025823E0,0E0,0E0,6.8372613E-1,0E0,0E0,0E0,0E0],"parents":[2147483647,0,0,1,1,2,2,3,3,6,6],"right_children":[2,4,6,8,-1,-1,10,-1,-1,-1,-1],"split_conditions":[5.308334E-1,3.244803E-1,4.512185E-1,1.2012876E-1,6.4471364E-2,-8.440972E-2,1.187592E0,-5.2152023E-2,3.191398E-2,2.3967005E-2,-4.4477567E-2],"split_indices":[38,38,18,50,0,0,38,0,0,0,0],"split_type":[0,0,0,0,0,0,0,0,0,0,0],"sum_hessian":[1.1389091E1,7.397443E0,3.9916477E0,5.870655E0,1.5267879E0,1.8884808E0,2.1031668E0,2.6941645E0,3.1764905E0,1.0255299E0,1.077637E0],"tree_param":{"num_deleted":"0","num_feature":"53","num_nodes":"11","size_leaf_vector":"0"}},{"base_weights":[-1.3060132E-1,-3.8878113E-1,3.2527494E-1,-1.8352417E-2,-9.2472416E-1,-2.3958193E-1,5.6678647E-1,3.0051535E-1,-4.4994363E-1,4.873936E-2,7.5124115E-1],"categories":[],"categories_nodes":[],"categories_segments":[],"categories_sizes":[],"default_left":[1,1,1,1,0,0,1,0,0,0,0],"id":60,"left_children":[1,3,5,7,-1,-1,9,-1,-1,-1,-1],"loss_changes":[1.5766627E0,1.6351635E0,8.1781846E-1,9.5282304E-1,0E0,0E0,3.2642448E-1,0E0,0E0,0E0,0E0],"parents":[2147483647,0,0,1,1,2,2,3,3,6,6],"right_children":[2,4,6,8,-1,-1,10,-1,-1,-1,-1],"split_conditions":[2.3287678E-1,2.750865E-2,8.637898E-3,1.5400395E-1,-7.628974E-2,-1.976551E-2,2.5160903E-1,2.4792518E-2,-3.712035E-2,4.0209973E-3,6.1977398E-2],"split_indices":[21,21,42,28,0,0,49,0,0,0,0],"split_type":[0,0,0,0,0,0,0,0,0,0,0],"sum_hessian":[1.1321376E1,7.3218927E0,3.9994833E0,4.9410334E0,2.3808594E0,1.2002591E0,2.7992244E0,3.016264E0,1.9247692E0,1.0669353E0,1.7322891E0],"tree_param":{"num_deleted":"0","num_feature":"53","num_nodes":"11","size_leaf_vector":"0"}},{"base_weights":[-1.8474342E-1,-4.7816885E-1,3.388882E-1,4.6737492E-1,-7.3957574E-1,6.170164E-1,-2.7553228E-1,-8.628455E-1,-8.717028E-2,6.195321E-3,8.5866845E-1],"categories":[],"categories_nodes":[],"categories_segments":[],"categories_sizes":[],"default_left":[1,1,1,0,1,1,0,0,0,0,0],"id":61,"left_children":[1,3,5,-1,7,9,-1,-1,-1,-1,-1],"loss_changes":[1.9936951E0,2.336564E0,1.0016189E0,0E0,4.6340704E-1,5.3472567E-1,0E0,0E0,0E0,0E0,0E0],"parents":[2147483647,0,0,1,1,2,2,4,4,5,5],"right_children":[2,4,6,-1,8,10,-1,-1,-1,-1,-1],"split_conditions":[2.8618318E-1,-6.058306E-1,6.8095267E-1,3.855843E-2,3.180424E-1,8.003871E-2,-2.2731414E-2,-7.1184754E-2,-7.1915486E-3,5.11114E-4,7.084015E-2],"split_indices":[52,17,7,0,50,28,0,0,0,0,0],"split_type":[0,0,0,0,0,0,0,0,0,0,0],"sum_hessian":[1.0921165E1,7.0547466E0,3.866419E0,1.3572977E0,5.697449E0,2.6586912E0,1.207728E0,4.520715E0,1.1767337E0,1.0444031E0,1.614288E0],"tree_param":{"num_deleted":"0","num_feature":"53","num_nodes":"11","size_leaf_vector":"0"}},{"base_weights":[8.3108954E-2,-2.0308265E-1,4.15119E-1,1.7401043E-1,-7.2047883E-1,7.4549234E-1,-2.4169682E-1,-3.2944262E-1,6.072942E-1,1.997368E-1,8.612761E-1],"categories":[],"categories_nodes":[],"categories_segments":[],"categories_sizes":[],"default_left":[1,1,1,1,0,1,0,0,0,0,0],"id":62,"left_children":[1,3,5,7,-1,9,-1,-1,-1,-1,-1],"loss_changes":[1.2134821E0,1.5016073E0,1.445262E0,1.265793E0,0E0,8.855057E-2,0E0,0E0,0E0,0E0,0E0],"parents":[2147483647,0,0,1,1,2,2,3,3,5,5],"right_children":[2,4,6,8,-1,10,-1,-1,-1,-1,-1],"split_conditions":[4.3755397E-3,-3.6034524E-2,5.685607E-1,-1.6260836E-1,-5.9439506E-2,1.1721694E-1,-1.9939989E-2,-2.7179018E-2,5.0101772E-2,1.6478287E-2,7.105528E-2],"split_indices":[51,12,47,34,0,33,0,0,0,0,0],"split_type":[0,0,0,0,0,0,0,0,0,0,0],"sum_hessian":[1.0883777E1,6.05377E0,4.8300066E0,3.8855505E0,2.1682196E0,3.1237662E0,1.7062404E0,1.9080995E0,1.977451E0,1.023676E0,2.1000903E0],"tree_param":{"num_deleted":"0","num_feature":"53","num_nodes":"11","size_leaf_vector":"0"}},{"base_weights":[-2.9158208E-1,-1.2049948E-1,-7.666872E-1,-5.1918226E-1,3.151463E-1,1.3197309E-1,-8.205302E-1,8.2751834E-1,-2.3537152E-1],"categories":[],"categories_nodes":[],"categories_segments":[],"categories_sizes":[],"default_left":[1,1,0,1,1,0,0,0,0],"id":63,"left_children":[1,3,-1,5,7,-1,-1,-1,-1],"loss_changes":[8.7786937E-1,1.8940327E0,0E0,1.2032008E0,1.7131766E0,0E0,0E0,0E0,0E0],"parents":[2147483647,0,0,1,1,3,3,4,4],"right_children":[2,4,-1,6,8,-1,-1,-1,-1],"split_conditions":[6.2490714E-1,-1.0481095E-2,-6.32517E-2,-1.9350906E-1,3.9732325E-1,1.088778E-2,-6.769374E-2,6.8270266E-2,-1.941815E-2],"split_indices":[33,44,0,3,17,0,0,0,0],"split_type":[0,0,0,0,0,0,0,0,0],"sum_hessian":[1.0936863E1,8.962975E0,1.9738878E0,4.579905E0,4.38307E0,1.6267867E0,2.9531183E0,2.0095756E0,2.3734944E0],"tree_param":{"num_deleted":"0","num_feature":"53","num_nodes":"9","size_leaf_vector":"0"}},{"base_weights":[-4.4864375E-2,9.677561E-2,-7.025616E-1,3.257451E-1,-5.438659E-1,-3.2702097E-1,4.8134688E-1,-9.8755985E-2,-7.206978E-1],"categories":[],"categories_nodes":[],"categories_segments":[],"categories_sizes":[],"default_left":[1,1,0,1,1,0,0,0,0],"id":64,"left_children":[1,3,-1,5,7,-1,-1,-1,-1],"loss_changes":[1.1816449E0,1.7489594E0,0E0,1.0227348E0,1.8037748E-1,0E0,0E0,0E0,0E0],"parents":[2147483647,0,0,1,1,3,3,4,4],"right_children":[2,4,-1,6,8,-1,-1,-1,-1],"split_conditions":[5.051949E-1,1.8455246E-1,-5.7961337E-2,-3.0622217E-1,1.8090048E-1,-2.6979232E-2,3.9711118E-2,-8.147369E-3,-5.9457574E-2],"split_indices":[16,26,0,41,0,0,0,0,0],"split_type":[0,0,0,0,0,0,0,0,0],"sum_hessian":[1.0954693E1,9.71529E0,1.2394029E0,7.5193553E0,2.1959343E0,1.2353357E0,6.2840195E0,1.0674617E0,1.1284726E0],"tree_param":{"num_deleted":"0","num_feature":"53","num_nodes":"9","size_leaf_vector":"0"}},{"base_weights":[-7.190845E-2,1.5669337E-1,-6.7165124E-1,3.8865572E-1,-3.7814865E-1,-2.1401198E-1,5.4400504E-1,-7.772146E-1,1.9383557E-1],"categories":[],"categories_nodes":[],"categories_segments":[],"categories_sizes":[],"default_left":[1,1,0,1,1,0,0,0,0],"id":65,"left_children":[1,3,-1,5,7,-1,-1,-1,-1],"loss_changes":[1.7027711E0,1.2942126E0,0E0,7.664602E-1,9.0486467E-1,0E0,0E0,0E0,0E0],"parents":[2147483647,0,0,1,1,3,3,4,4],"right_children":[2,4,-1,6,8,-1,-1,-1,-1],"split_conditions":[1.8455246E-1,2.8019494E-1,-5.541123E-2,-6.274194E-1,2.460275E-1,-1.765599E-2,4.4880416E-2,-6.41202E-2,1.5991434E-2],"split_indices":[26,9,0,11,42,0,0,0,0],"split_type":[0,0,0,0,0,0,0,0,0],"sum_hessian":[1.0652086E1,8.247245E0,2.4048407E0,5.9430537E0,2.3041916E0,1.1405901E0,4.8024635E0,1.1459045E0,1.1582869E0],"tree_param":{"num_deleted":"0","num_feature":"53","num_nodes":"9","size_leaf_vector":"0"}},{"base_weights":[2.6028473E-2,-3.792947E-1,3.0498388E-1,3.1963095E-1,-7.0921296E-1,6.4680797E-1,-3.2048893E-1,-8.4289825E-1,-1.809926E-1,8.004543E-1,3.890498E-2,-7.023487E-1,1.532013E-1],"categories":[],"categories_nodes":[],"categories_segments":[],"categories_sizes":[],"default_left":[1,1,1,0,1,1,1,0,0,0,0,0,0],"id":66,"left_children":[1,3,5,-1,7,9,11,-1,-1,-1,-1,-1,-1],"loss_changes":[1.4339021E0,1.4254134E0,1.8023015E0,0E0,1.18760586E-1,4.5036864E-1,7.054148E-1,0E0,0E0,0E0,0E0,0E0,0E0],"parents":[2147483647,0,0,1,1,2,2,4,4,5,5,6,6],"right_children":[2,4,6,-1,8,10,12,-1,-1,-1,-1,-1,-1],"split_conditions":[-1.4945208E-1,-6.1113536E-1,2.2687592E-1,2.6369555E-2,4.1639205E-2,2.566013E-1,-3.1957445E-1,-6.953911E-2,-1.493189E-2,6.603748E-2,3.209661E-3,-5.7943773E-2,1.2639107E-2],"split_indices":[4,46,35,0,28,42,2,0,0,0,0,0,0],"split_type":[0,0,0,0,0,0,0,0,0,0,0,0,0],"sum_hessian":[1.0658772E1,4.198558E0,6.460215E0,1.356346E0,2.8422117E0,4.155243E0,2.3049722E0,1.7927574E0,1.0494543E0,3.064061E0,1.0911821E0,1.0089233E0,1.2960488E0],"tree_param":{"num_deleted":"0","num_feature":"53","num_nodes":"13","size_leaf_vector":"0"}},{"base_weights":[1.3282411E-1,-3.2755753E-1,4.599584E-1,2.806256E-1,-5.8819824E-1,-2.5002822E-1,6.6773427E-1,-2.0503448E-1,-7.524199E-1,2.545665E-2,9.349288E-1],"categories":[],"categories_nodes":[],"categories_segments":[],"categories_sizes":[],"default_left":[1,1,1,0,1,0,1,0,0,0,0],"id":67,"left_children":[1,3,5,-1,7,-1,9,-1,-1,-1,-1],"loss_changes":[1.7326369E0,9.493169E-1,1.1341668E0,0E0,8.3972216E-2,0E0,8.934102E-1,0E0,0E0,0E0,0E0],"parents":[2147483647,0,0,1,1,2,2,4,4,6,6],"right_children":[2,4,6,-1,8,-1,10,-1,-1,-1,-1],"split_conditions":[-2.5667304E-1,-3.5654817E-2,-7.9640394E-1,2.3151614E-2,-3.8981363E-1,-2.062733E-2,-1.9933102E-1,-1.6915346E-2,-6.2074643E-2,2.1001736E-3,7.713163E-2],"split_indices":[8,26,38,0,49,0,41,0,0,0,0],"split_type":[0,0,0,0,0,0,0,0,0,0,0],"sum_hessian":[9.504014E0,3.9474323E0,5.556582E0,1.1611981E0,2.7862341E0,1.2119378E0,4.344644E0,1.5104825E0,1.2757516E0,1.5981978E0,2.7464464E0],"tree_param":{"num_deleted":"0","num_feature":"53","num_nodes":"11","size_leaf_vector":"0"}},{"base_weights":[-2.035923E-1,-4.4816008E-1,2.0416225E-1,3.690441E-1,-7.234618E-1,7.1784544E-1,-2.4753262E-1,-2.4591328E-1,-1.0300882E0,-5.080232E-1,1.6258043E-1],"categories":[],"categories_nodes":[],"categories_segments":[],"categories_sizes":[],"default_left":[1,1,1,0,1,0,1,0,0,0,0],"id":68,"left_children":[1,3,5,-1,7,-1,9,-1,-1,-1,-1],"loss_changes":[1.1601763E0,1.8444437E0,1.2693365E0,0E0,5.6413317E-1,0E0,4.2947814E-1,0E0,0E0,0E0,0E0],"parents":[2147483647,0,0,1,1,2,2,4,4,6,6],"right_children":[2,4,6,-1,8,-1,10,-1,-1,-1,-1],"split_conditions":[2.8618318E-1,-4.2802042E-1,5.2774704E-1,3.0446138E-2,-1.2775476E-4,5.922225E-2,7.665356E-2,-2.0287847E-2,-8.4982276E-2,-4.1911915E-2,1.3412886E-2],"split_indices":[52,49,47,0,14,0,42,0,0,0,0],"split_type":[0,0,0,0,0,0,0,0,0,0,0],"sum_hessian":[9.716407E0,6.011604E0,3.7048028E0,1.4290655E0,4.5825386E0,1.4577605E0,2.2470424E0,2.4964674E0,2.0860713E0,1.2281939E0,1.0188484E0],"tree_param":{"num_deleted":"0","num_feature":"53","num_nodes":"11","size_leaf_vector":"0"}},{"base_weights":[-1.885472E-1,7.972105E-2,-5.905492E-1,-2.3384304E-1,7.085532E-1,-7.791924E-1,-2.5242904E-2,3.2184017E-1,-5.370268E-1,-1.9131836E-1,-9.4961995E-1],"categories":[],"categories_nodes":[],"categories_segments":[],"categories_sizes":[],"default_left":[1,1,1,1,0,1,0,0,0,0,0],"id":69,"left_children":[1,3,5,7,-1,9,-1,-1,-1,-1,-1],"loss_changes":[1.3326507E0,1.7491541E0,5.0180984E-1,1.2022854E0,0E0,1.8231368E-1,0E0,0E0,0E0,0E0,0E0],"parents":[2147483647,0,0,1,1,2,2,3,3,5,5],"right_children":[2,4,6,8,-1,10,-1,-1,-1,-1,-1],"split_conditions":[4.075033E-1,-2.6954126E-2,3.451567E-1,-2.765216E-2,5.8455642E-2,1.6948295E-1,-2.0825397E-3,2.6551815E-2,-4.4304714E-2,-1.5783766E-2,-7.834365E-2],"split_indices":[17,44,34,35,0,34,0,0,0,0,0],"split_type":[0,0,0,0,0,0,0,0,0,0,0],"sum_hessian":[1.0920617E1,7.0305834E0,3.8900337E0,5.110426E0,1.9201578E0,2.6330338E0,1.257E0,1.7822803E0,3.3281455E0,1.0688196E0,1.5642142E0],"tree_param":{"num_deleted":"0","num_feature":"53","num_nodes":"11","size_leaf_vector":"0"}},{"base_weights":[-1.2203403E-1,3.6736112E-2,-8.013483E-1,2.7129552E-1,-3.5930508E-1,-3.039198E-1,6.5375596E-1,1.6772154E-1,-6.191321E-1],"categories":[],"categories_nodes":[],"categories_segments":[],"categories_sizes":[],"default_left":[1,1,0,1,1,0,0,0,0],"id":70,"left_children":[1,3,-1,5,7,-1,-1,-1,-1],"loss_changes":[1.1763018E0,9.869614E-1,0E0,1.647003E0,6.504621E-1,0E0,0E0,0E0,0E0],"parents":[2147483647,0,0,1,1,3,3,4,4],"right_children":[2,4,-1,6,8,-1,-1,-1,-1],"split_conditions":[4.5617327E-1,5.2174467E-1,-6.611124E-2,-1.5798452E-1,3.228271E-1,-2.5073383E-2,5.393487E-2,1.3837027E-2,-5.10784E-2],"split_indices":[21,33,0,34,24,0,0,0,0],"split_type":[0,0,0,0,0,0,0,0,0],"sum_hessian":[9.633399E0,8.575131E0,1.0582681E0,5.5833297E0,2.9918017E0,2.311788E0,3.2715414E0,1.1049786E0,1.8868232E0],"tree_param":{"num_deleted":"0","num_feature":"53","num_nodes":"9","size_leaf_vector":"0"}},{"base_weights":[1.2195841E-1,3.3583224E-1,-2.9322535E-1,-3.3830318E-1,6.813746E-1,-8.4082294E-1,3.7363538E-1,2.5320908E-1,-7.461752E-1,1.6632135E-1,7.748103E-1],"categories":[],"categories_nodes":[],"categories_segments":[],"categories_sizes":[],"default_left":[1,1,1,1,1,0,0,0,0,0,0],"id":71,"left_children":[1,3,5,7,9,-1,-1,-1,-1,-1,-1],"loss_changes":[1.0425197E0,1.9736247E0,1.8290675E0,9.619466E-1,1.2518072E-1,0E0,0E0,0E0,0E0,0E0,0E0],"parents":[2147483647,0,0,1,1,2,2,3,3,4,4],"right_children":[2,4,6,8,10,-1,-1,-1,-1,-1,-1],"split_conditions":[4.18522E-1,-4.8871243E-1,4.76944E-1,-6.528883E-1,-3.026645E-1,-6.936789E-2,3.082492E-2,2.088975E-2,-6.1559457E-2,1.3721512E-2,6.3921854E-2],"split_indices":[17,39,22,47,41,0,0,0,0,0,0],"split_type":[0,0,0,0,0,0,0,0,0,0,0],"sum_hessian":[9.631506E0,6.483025E0,3.1484804E0,2.2040286E0,4.2789965E0,1.5855923E0,1.5628883E0,1.0542738E0,1.1497549E0,1.0839442E0,3.1950524E0],"tree_param":{"num_deleted":"0","num_feature":"53","num_nodes":"11","size_leaf_vector":"0"}},{"base_weights":[8.583065E-3,2.631802E-1,-3.4217256E-1,-4.7640976E-1,5.613405E-1,1.22420415E-1,-7.837999E-1,7.634003E-1,-2.1279506E-2,4.774139E-1,-2.7422565E-1],"categories":[],"categories_nodes":[],"categories_segments":[],"categories_sizes":[],"default_left":[1,1,1,0,1,1,0,0,0,0,0],"id":72,"left_children":[1,3,5,-1,7,9,-1,-1,-1,-1,-1],"loss_changes":[9.752984E-1,1.658683E0,1.0405743E0,0E0,5.9962285E-1,5.6862277E-1,0E0,0E0,0E0,0E0,0E0],"parents":[2147483647,0,0,1,1,2,2,4,4,5,5],"right_children":[2,4,6,-1,8,10,-1,-1,-1,-1,-1],"split_conditions":[4.8551597E-2,-6.88118E-1,4.8891667E-1,-3.9303806E-2,1.3075028E-1,2.221269E-1,-6.466349E-2,6.2980525E-2,-1.7555594E-3,3.938665E-2,-2.2623617E-2],"split_indices":[3,14,10,0,22,35,0,0,0,0,0],"split_type":[0,0,0,0,0,0,0,0,0,0,0],"sum_hessian":[8.913011E0,5.309077E0,3.603934E0,1.3536074E0,3.9554691E0,2.108541E0,1.495393E0,2.7065244E0,1.2489448E0,1.005238E0,1.103303E0],"tree_param":{"num_deleted":"0","num_feature":"53","num_nodes":"11","size_leaf_vector":"0"}},{"base_weights":[-8.734767E-2,-4.2361242E-1,3.488378E-1,1.0938068E-1,-7.8132075E-1,6.3241917E-1,-3.2225847E-1,-4.1259804E-1,5.160669E-1,7.545323E-1,1.7625764E-1],"categories":[],"categories_nodes":[],"categories_segments":[],"categories_sizes":[],"default_left":[1,1,1,1,0,1,0,0,0,0,0],"id":73,"left_children":[1,3,5,7,-1,9,-1,-1,-1,-1,-1],"loss_changes":[1.6143861E0,1.2480631E0,1.1365625E0,9.190047E-1,0E0,7.7729344E-2,0E0,0E0,0E0,0E0,0E0],"parents":[2147483647,0,0,1,1,2,2,3,3,5,5],"right_children":[2,4,6,8,-1,10,-1,-1,-1,-1,-1],"split_conditions":[7.533172E-2,-2.8134018E-1,1.684491E-1,-6.1561537E-1,-6.4458966E-2,2.5003675E-1,-2.6586326E-2,-3.403934E-2,4.2575523E-2,6.2248915E-2,1.4541256E-2],"split_indices":[28,16,9,50,0,42,0,0,0,0,0],"split_type":[0,0,0,0,0,0,0,0,0,0,0],"sum_hessian":[8.999156E0,5.0979004E0,3.9012558E0,2.326132E0,2.7717683E0,2.7829242E0,1.1183319E0,1.012307E0,1.313825E0,1.6792923E0,1.1036317E0],"tree_param":{"num_deleted":"0","num_feature":"53","num_nodes":"11","size_leaf_vector":"0"}},{"base_weights":[-8.350686E-2,-2.568756E-1,6.4210075E-1,-4.2526153E-1,4.027079E-1,-2.7798094E-2,-6.2525684E-1],"categories":[],"categories_nodes":[],"categories_segments":[],"categories_sizes":[],"default_left":[1,1,0,1,0,0,0],"id":74,"left_children":[1,3,-1,5,-1,-1,-1],"loss_changes":[1.4878767E0,1.1933328E0,0E0,6.040292E-1,0E0,0E0,0E0],"parents":[2147483647,0,0,1,1,3,3],"right_children":[2,4,-1,6,-1,-1,-1],"split_conditions":[5.2025676E-1,3.9647776E-1,5.2973315E-2,-2.1331187E-1,3.32234E-2,-2.2933427E-3,-5.1583692E-2],"split_indices":[18,34,0,17,0,0,0],"split_type":[0,0,0,0,0,0,0],"sum_hessian":[9.516384E0,8.202543E0,1.3138404E0,6.817383E0,1.3851609E0,2.6633437E0,4.154039E0],"tree_param":{"num_deleted":"0","num_feature":"53","num_nodes":"7","size_leaf_vector":"0"}},{"base_weights":[-6.819545E-2,3.9858165E-1,-2.9357862E-1,-1.5255019E-1,7.075918E-1,-4.660981E-1,4.665564E-1,2.4738085E-1,-7.2909886E-1],"categories":[],"categories_nodes":[],"categories_segments":[],"categories_sizes":[],"default_left":[1,1,1,0,0,1,0,0,0],"id":75,"left_children":[1,3,5,-1,-1,7,-1,-1,-1],"loss_changes":[1.2991518E0,8.0330956E-1,1.2867069E0,0E0,0E0,1.5212071E0,0E0,0E0,0E0],"parents":[2147483647,0,0,1,1,2,2,5,5],"right_children":[2,4,6,-1,-1,8,-1,-1,-1],"split_conditions":[-4.527306E-1,-6.683582E-2,3.119038E-1,-1.2585391E-2,5.8376323E-2,-3.554631E-1,3.8490906E-2,2.0408921E-2,-6.0150657E-2],"split_indices":[19,28,9,0,0,2,0,0,0],"split_type":[0,0,0,0,0,0,0,0,0],"sum_hessian":[1.0236646E1,3.0830564E0,7.1535892E0,1.2895029E0,1.7935536E0,6.14561E0,1.0079793E0,1.6712279E0,4.474382E0],"tree_param":{"num_deleted":"0","num_feature":"53","num_nodes":"9","size_leaf_vector":"0"}},{"base_weights":[-1.1171446E-1,-3.873237E-1,5.766376E-1,1.8130468E-1,-5.096153E-1,3.6199808E-2,7.7623296E-1,-6.507108E-1,2.9464327E-2],"categories":[],"categories_nodes":[],"categories_segments":[],"categories_sizes":[],"default_left":[1,1,1,0,1,0,0,0,0],"id":76,"left_children":[1,3,5,-1,7,-1,-1,-1,-1],"loss_changes":[2.3428893E0,6.8876505E-1,3.5980546E-1,0E0,5.7598686E-1,0E0,0E0,0E0,0E0],"parents":[2147483647,0,0,1,1,2,2,4,4],"right_children":[2,4,6,-1,8,-1,-1,-1,-1],"split_conditions":[3.8515323E-1,-3.077541E-1,-4.0707868E-1,1.4957637E-2,1.6403274E-1,2.9864842E-3,6.403922E-2,-5.3683646E-2,2.430807E-3],"split_indices":[15,32,21,0,24,0,0,0,0],"split_type":[0,0,0,0,0,0,0,0,0],"sum_hessian":[1.0172182E1,7.5761037E0,2.5960782E0,1.2555447E0,6.320559E0,1.0188196E0,1.5772586E0,4.8453016E0,1.4752575E0],"tree_param":{"num_deleted":"0","num_feature":"53","num_nodes":"9","size_leaf_vector":"0"}},{"base_weights":[1.025684E-1,4.45773E-1,-2.021914E-1,7.860875E-1,-3.0681682E-1,-6.0094976E-1,4.6480188E-1,-8.505869E-1,-1.6629043E-1],"categories":[],"categories_nodes":[],"categories_segments":[],"categories_sizes":[],"default_left":[1,1,1,0,0,1,0,0,0],"id":77,"left_children":[1,3,5,-1,-1,7,-1,-1,-1],"loss_changes":[1.1966326E0,1.5954473E0,1.952601E0,0E0,0E0,3.33107E-1,0E0,0E0,0E0],"parents":[2147483647,0,0,1,1,2,2,5,5],"right_children":[2,4,6,-1,-1,8,-1,-1,-1],"split_conditions":[2.4624777E-1,5.2593654E-1,3.44351E-1,6.485222E-2,-2.5312388E-2,4.747914E-1,3.8346156E-2,-7.017342E-2,-1.3718961E-2],"split_indices":[10,40,29,0,0,10,0,0,0],"split_type":[0,0,0,0,0,0,0,0,0],"sum_hessian":[9.578915E0,4.287666E0,5.291249E0,2.9218988E0,1.365767E0,3.3734603E0,1.9177885E0,1.5349759E0,1.8384845E0],"tree_param":{"num_deleted":"0","num_feature":"53","num_nodes":"9","size_leaf_vector":"0"}},{"base_weights":[7.159121E-2,-4.729899E-1,4.0749526E-1,7.7345776E-3,-7.0768625E-1,-2.0544444E-1,5.6754273E-1,7.9263365E-1,-2.4405537E-2],"categories":[],"categories_nodes":[],"categories_segments":[],"categories_sizes":[],"default_left":[1,1,1,0,0,0,1,0,0],"id":78,"left_children":[1,3,5,-1,-1,-1,7,-1,-1],"loss_changes":[2.175786E0,5.242957E-1,8.270482E-1,0E0,0E0,0E0,8.19921E-1,0E0,0E0],"parents":[2147483647,0,0,1,1,2,2,6,6],"right_children":[2,4,6,-1,-1,-1,8,-1,-1],"split_conditions":[-2.6139718E-1,-5.115113E-1,-5.1660705E-1,6.381027E-4,-5.8384117E-2,-1.6949167E-2,4.92437E-1,6.539228E-2,-2.013457E-3],"split_indices":[25,16,20,0,0,0,16,0,0],"split_type":[0,0,0,0,0,0,0,0,0],"sum_hessian":[9.840636E0,3.5984976E0,6.2421384E0,1.4977425E0,2.1007552E0,1.2337093E0,5.008429E0,3.3830023E0,1.6254269E0],"tree_param":{"num_deleted":"0","num_feature":"53","num_nodes":"9","size_leaf_vector":"0"}},{"base_weights":[-6.0836542E-2,-3.0823278E-1,3.2354662E-1,4.3533066E-1,-5.3691506E-1,-1.7263548E-2,4.8735693E-1,7.5535685E-2,-7.5766283E-1],"categories":[],"categories_nodes":[],"categories_segments":[],"categories_sizes":[],"default_left":[1,1,1,0,1,0,0,0,0],"id":79,"left_children":[1,3,5,-1,7,-1,-1,-1,-1],"loss_changes":[1.0262587E0,1.3287964E0,2.4865314E-1,0E0,7.83648E-1,0E0,0E0,0E0,0E0],"parents":[2147483647,0,0,1,1,2,2,4,4],"right_children":[2,4,6,-1,8,-1,-1,-1,-1],"split_conditions":[9.8530695E-2,-5.651711E-1,4.877854E-1,3.5914782E-2,-6.0353035E-1,-1.4242429E-3,4.020695E-2,6.231694E-3,-6.250719E-2],"split_indices":[28,48,45,0,23,0,0,0,0],"split_type":[0,0,0,0,0,0,0,0,0],"sum_hessian":[8.74322E0,5.4400268E0,3.303193E0,1.0670034E0,4.3730235E0,1.3626951E0,1.940498E0,1.3328725E0,3.0401511E0],"tree_param":{"num_deleted":"0","num_feature":"53","num_nodes":"9","size_leaf_vector":"0"}},{"base_weights":[-4.8899904E-2,-3.1471616E-1,2.7000126E-1,2.003352E-1,-5.735724E-1,7.146287E-1,-1.5638486E-1,-7.431868E-1,-1.2665164E-1,-4.922401E-1,2.3029613E-1],"categories":[],"categories_nodes":[],"categories_segments":[],"categories_sizes":[],"default_left":[1,1,1,0,1,0,1,0,0,0,0],"id":80,"left_children":[1,3,5,-1,7,-1,9,-1,-1,-1,-1],"loss_changes":[9.3873227E-1,9.0881765E-1,1.0818226E0,0E0,2.2590864E-1,0E0,5.591301E-1,0E0,0E0,0E0,0E0],"parents":[2147483647,0,0,1,1,2,2,4,4,6,6],"right_children":[2,4,6,-1,8,-1,10,-1,-1,-1,-1],"split_conditions":[7.533172E-2,-6.7214346E-1,2.2258386E-1,1.6527655E-2,2.870949E-1,5.895687E-2,6.737666E-1,-6.131291E-2,-1.0448761E-2,-4.060981E-2,1.8999431E-2],"split_indices":[28,23,32,0,38,0,47,0,0,0,0],"split_type":[0,0,0,0,0,0,0,0,0,0,0],"sum_hessian":[9.071576E0,4.954737E0,4.116839E0,1.7328755E0,3.2218616E0,1.6843828E0,2.432456E0,1.8549644E0,1.3668971E0,1.1556865E0,1.2767695E0],"tree_param":{"num_deleted":"0","num_feature":"53","num_nodes":"11","size_leaf_vector":"0"}},{"base_weights":[6.1818723E-2,3.6497864E-1,-2.891341E-1,-1.10802636E-1,5.8737636E-1,-7.566854E-1,3.1151026E-1,1.3509226E-1,7.0895094E-1],"categories":[],"categories_nodes":[],"categories_segments":[],"categories_sizes":[],"default_left":[1,1,1,0,1,0,0,0,0],"id":81,"left_children":[1,3,5,-1,7,-1,-1,-1,-1],"loss_changes":[1.1309806E0,6.590333E-1,1.6468848E0,0E0,1.2328553E-1,0E0,0E0,0E0,0E0],"parents":[2147483647,0,0,1,1,2,2,4,4],"right_children":[2,4,6,-1,8,-1,-1,-1,-1],"split_conditions":[3.9732325E-1,-2.5792077E-1,3.0707008E-1,-9.141218E-3,-3.4103358E-1,-6.2426545E-2,2.5699599E-2,1.1145112E-2,5.8488455E-2],"split_indices":[17,34,51,0,50,0,0,0,0],"split_type":[0,0,0,0,0,0,0,0,0],"sum_hessian":[8.638184E0,4.613225E0,4.024959E0,1.6293328E0,2.9838922E0,2.1171477E0,1.9078115E0,1.079416E0,1.9044762E0],"tree_param":{"num_deleted":"0","num_feature":"53","num_nodes":"9","size_leaf_vector":"0"}},{"base_weights":[1.9739255E-1,3.6431533E-1,-3.3407444E-1,7.2675663E-1,2.107057E-2,-2.9064205E-1,3.308525E-1],"categories":[],"categories_nodes":[],"categories_segments":[],"categories_sizes":[],"default_left":[1,1,0,0,1,0,0],"id":82,"left_children":[1,3,-1,-1,5,-1,-1],"loss_changes":[9.385431E-1,9.158869E-1,0E0,0E0,5.668316E-1,0E0,0E0],"parents":[2147483647,0,0,1,1,4,4],"right_children":[2,4,-1,-1,6,-1,-1],"split_conditions":[1.8499732E-1,-3.292247E-2,-2.7561143E-2,5.9957426E-2,5.3930897E-1,-2.397797E-2,2.7295332E-2],"split_indices":[26,31,0,0,31,0,0],"split_type":[0,0,0,0,0,0,0],"sum_hessian":[8.207512E0,6.4851656E0,1.7223462E0,2.6109164E0,3.8742495E0,1.9619036E0,1.9123459E0],"tree_param":{"num_deleted":"0","num_feature":"53","num_nodes":"7","size_leaf_vector":"0"}},{"base_weights":[-1.8697663E-1,4.2484574E-2,-7.431711E-1,5.1689106E-1,-1.7024982E-1,-5.732136E-1,2.3810326E-1],"categories":[],"categories_nodes":[],"categories_segments":[],"categories_sizes":[],"default_left":[1,1,0,0,1,0,0],"id":83,"left_children":[1,3,-1,-1,5,-1,-1],"loss_changes":[1.3320568E0,9.114997E-1,0E0,0E0,1.187269E0,0E0,0E0],"parents":[2147483647,0,0,1,1,4,4],"right_children":[2,4,-1,-1,6,-1,-1],"split_conditions":[5.000145E-1,-1.9274434E-1,-6.1311617E-2,4.2643514E-2,-1.1294183E-1,-4.729012E-2,1.964352E-2],"split_indices":[49,3,0,0,32,0,0],"split_type":[0,0,0,0,0,0,0],"sum_hessian":[9.189876E0,7.159712E0,2.0301642E0,1.7739598E0,5.385752E0,2.5075626E0,2.8781893E0],"tree_param":{"num_deleted":"0","num_feature":"53","num_nodes":"7","size_leaf_vector":"0"}},{"base_weights":[1.617541E-1,5.8607936E-1,-3.5310155E-1,7.610372E-1,2.038476E-1,-6.1913484E-1,2.1352421E-1],"categories":[],"categories_nodes":[],"categories_segments":[],"categories_sizes":[],"default_left":[1,1,1,0,0,0,0],"id":84,"left_children":[1,3,5,-1,-1,-1,-1],"loss_changes":[1.9678559E0,1.6550136E-1,7.752202E-1,0E0,0E0,0E0,0E0],"parents":[2147483647,0,0,1,1,2,2],"right_children":[2,4,6,-1,-1,-1,-1],"split_conditions":[2.8103495E-1,-1.872249E-1,5.306422E-1,6.2785566E-2,1.6817428E-2,-5.1078625E-2,1.7615749E-2],"split_indices":[36,48,22,0,0,0,0],"split_type":[0,0,0,0,0,0,0],"sum_hessian":[7.060331E0,3.7946124E0,3.2657185E0,1.9232521E0,1.8713602E0,2.1592646E0,1.1064539E0],"tree_param":{"num_deleted":"0","num_feature":"53","num_nodes":"7","size_leaf_vector":"0"}},{"base_weights":[-5.6835674E-2,1.8375473E-1,-6.1046565E-1,-1.6329741E-1,5.655301E-1,-1.04083374E-1,-7.927803E-1,2.2776665E-1,-5.6956285E-1,1.7309801E-1,7.140826E-1],"categories":[],"categories_nodes":[],"categories_segments":[],"categories_sizes":[],"default_left":[1,1,1,1,1,0,0,0,0,0,0],"id":85,"left_children":[1,3,5,7,9,-1,-1,-1,-1,-1,-1],"loss_changes":[1.452604E0,1.1236426E0,2.202828E-1,9.0077555E-1,1.0552502E-1,0E0,0E0,0E0,0E0,0E0,0E0],"parents":[2147483647,0,0,1,1,2,2,3,3,4,4],"right_children":[2,4,6,8,10,-1,-1,-1,-1,-1,-1],"split_conditions":[5.1604915E-1,1.6001944E-1,5.914564E-1,-4.4468063E-1,-5.1441014E-1,-8.586879E-3,-6.540438E-2,1.879075E-2,-4.6988938E-2,1.42805865E-2,5.8911815E-2],"split_indices":[10,50,23,19,10,0,0,0,0,0,0],"split_type":[0,0,0,0,0,0,0,0,0,0,0],"sum_hessian":[9.063421E0,6.7835793E0,2.2798421E0,3.85315E0,2.9304295E0,1.0193839E0,1.2604581E0,2.1871765E0,1.6659734E0,1.3992506E0,1.531179E0],"tree_param":{"num_deleted":"0","num_feature":"53","num_nodes":"11","size_leaf_vector":"0"}},{"base_weights":[6.5452345E-2,4.4006145E-1,-2.4844778E-1,-2.846057E-2,6.845257E-1,-5.393495E-1,2.372683E-1,-1.6411053E-1,-6.350399E-1],"categories":[],"categories_nodes":[],"categories_segments":[],"categories_sizes":[],"default_left":[1,1,1,0,0,1,0,0,0],"id":86,"left_children":[1,3,5,-1,-1,7,-1,-1,-1],"loss_changes":[1.0362408E0,4.7243047E-1,8.2426834E-1,0E0,0E0,1.7420113E-2,0E0,0E0,0E0],"parents":[2147483647,0,0,1,1,2,2,5,5],"right_children":[2,4,6,-1,-1,8,-1,-1,-1],"split_conditions":[2.0215684E-1,-2.2473782E-2,6.203704E-1,-2.3479972E-3,5.6473374E-2,4.8960882E-1,1.9574635E-2,-1.3539119E-2,-5.2390795E-2],"split_indices":[46,28,8,0,0,23,0,0,0],"split_type":[0,0,0,0,0,0,0,0,0],"sum_hessian":[6.882557E0,2.954607E0,3.92795E0,1.3160135E0,1.6385934E0,2.3875773E0,1.5403725E0,1.0368207E0,1.3507568E0],"tree_param":{"num_deleted":"0","num_feature":"53","num_nodes":"9","size_leaf_vector":"0"}},{"base_weights":[-9.623399E-2,1.65087E-1,-4.4580236E-1,-1.14572465E-1,6.9618165E-1,-7.496083E-1,3.0246636E-1,3.3021602E-1,-4.3710318E-1],"categories":[],"categories_nodes":[],"categories_segments":[],"categories_sizes":[],"default_left":[1,1,1,1,0,0,0,0,0],"id":87,"left_children":[1,3,5,7,-1,-1,-1,-1,-1],"loss_changes":[1.0020851E0,1.0520072E0,1.2765716E0,8.8267386E-1,0E0,0E0,0E0,0E0,0E0],"parents":[2147483647,0,0,1,1,2,2,3,3],"right_children":[2,4,6,8,-1,-1,-1,-1,-1],"split_conditions":[1.8466142E-1,3.548883E-2,3.9702827E-1,-5.1931417E-1,5.7434987E-2,-6.1842684E-2,2.4953475E-2,2.7242823E-2,-3.6061015E-2],"split_indices":[34,37,34,46,0,0,0,0,0],"split_type":[0,0,0,0,0,0,0,0,0],"sum_hessian":[9.164132E0,5.545967E0,3.6181655E0,4.146702E0,1.399265E0,2.5720804E0,1.0460852E0,1.732986E0,2.4137158E0],"tree_param":{"num_deleted":"0","num_feature":"53","num_nodes":"9","size_leaf_vector":"0"}},{"base_weights":[6.888862E-3,2.0426823E-1,-4.781484E-1,5.448204E-1,-1.5199922E-1,7.7268934E-1,-3.790339E-2,2.3069523E-1,-4.945119E-1],"categories":[],"categories_nodes":[],"categories_segments":[],"categories_sizes":[],"default_left":[1,1,0,1,1,0,0,0,0],"id":88,"left_children":[1,3,-1,5,7,-1,-1,-1,-1],"loss_changes":[9.7437423E-1,9.5752144E-1,0E0,5.477011E-1,6.784116E-1,0E0,0E0,0E0,0E0],"parents":[2147483647,0,0,1,1,3,3,4,4],"right_children":[2,4,-1,6,8,-1,-1,-1,-1],"split_conditions":[6.2675774E-1,-2.892324E-3,-3.9447244E-2,5.685748E-1,2.4320754E-1,6.374687E-2,-3.1270299E-3,1.9032357E-2,-4.0797234E-2],"split_indices":[33,41,0,11,31,0,0,0,0],"split_type":[0,0,0,0,0,0,0,0,0],"sum_hessian":[8.15748E0,6.209478E0,1.9480025E0,2.9041686E0,3.3053093E0,1.8534125E0,1.0507561E0,1.7152724E0,1.5900367E0],"tree_param":{"num_deleted":"0","num_feature":"53","num_nodes":"9","size_leaf_vector":"0"}},{"base_weights":[4.182337E-2,5.913528E-1,-1.9409028E-1,-4.148464E-1,2.4727295E-1,-7.2145057E-1,9.46382E-2],"categories":[],"categories_nodes":[],"categories_segments":[],"categories_sizes":[],"default_left":[1,0,1,1,0,0,0],"id":89,"left_children":[1,-1,3,5,-1,-1,-1],"loss_changes":[1.254779E0,0E0,7.7537906E-1,8.4564173E-1,0E0,0E0,0E0],"parents":[2147483647,0,0,2,2,3,3],"right_children":[2,-1,4,6,-1,-1,-1],"split_conditions":[-3.2484305E-1,4.878661E-2,4.134694E-1,3.315061E-1,2.040002E-2,-5.9519675E-2,7.8076515E-3],"split_indices":[49,0,51,38,0,0,0],"split_type":[0,0,0,0,0,0,0],"sum_hessian":[7.793504E0,1.8883033E0,5.905201E0,3.976406E0,1.9287947E0,2.222738E0,1.7536681E0],"tree_param":{"num_deleted":"0","num_feature":"53","num_nodes":"7","size_leaf_vector":"0"}},{"base_weights":[-2.274702E-1,-5.959588E-1,1.1802377E-2,-6.144419E-2,-7.9160553E-1,1.8848145E-1,-5.6775486E-1,-2.3314469E-1,5.1002574E-1],"categories":[],"categories_nodes":[],"categories_segments":[],"categories_sizes":[],"default_left":[1,1,1,0,0,1,0,0,0],"id":90,"left_children":[1,3,5,-1,-1,7,-1,-1,-1],"loss_changes":[9.962306E-1,4.1530204E-1,9.039461E-1,0E0,0E0,1.0293193E0,0E0,0E0,0E0],"parents":[2147483647,0,0,1,1,2,2,5,5],"right_children":[2,4,6,-1,-1,8,-1,-1,-1],"split_conditions":[-1.7691779E-1,-3.2484305E-1,1.2396373E0,-5.069146E-3,-6.530746E-2,7.468109E-2,-4.6839777E-2,-1.9234437E-2,4.2077124E-2],"split_indices":[0,49,23,0,0,28,0,0,0],"split_type":[0,0,0,0,0,0,0,0,0],"sum_hessian":[1.0219301E1,3.4364033E0,6.7828984E0,1.2728857E0,2.1635175E0,5.715348E0,1.0675504E0,2.5917838E0,3.1235642E0],"tree_param":{"num_deleted":"0","num_feature":"53","num_nodes":"9","size_leaf_vector":"0"}},{"base_weights":[-4.8738595E-2,-1.90528E-1,4.9024007E-1,7.8223825E-2,-5.3897816E-1,-4.787026E-1,4.718682E-1,-7.027382E-1,-7.510451E-2],"categories":[],"categories_nodes":[],"categories_segments":[],"categories_sizes":[],"default_left":[1,1,0,1,1,0,0,0,0],"id":91,"left_children":[1,3,-1,5,7,-1,-1,-1,-1],"loss_changes":[8.2553077E-1,8.198877E-1,0E0,1.4452285E0,2.315538E-1,0E0,0E0,0E0,0E0],"parents":[2147483647,0,0,1,1,3,3,4,4],"right_children":[2,4,-1,6,8,-1,-1,-1,-1],"split_conditions":[6.7473793E-1,2.8827298E-1,4.0444806E-2,-6.919834E-1,3.216013E-2,-3.9492965E-2,3.8929127E-2,-5.7975907E-2,-6.1961226E-3],"split_indices":[31,47,0,14,2,0,0,0,0],"split_type":[0,0,0,0,0,0,0,0,0],"sum_hessian":[8.580114E0,7.304909E0,1.2752048E0,4.5619154E0,2.742994E0,1.7996701E0,2.7622452E0,1.646722E0,1.0962721E0],"tree_param":{"num_deleted":"0","num_feature":"53","num_nodes":"9","size_leaf_vector":"0"}},{"base_weights":[-1.8139152E-2,6.326297E-1,-1.9515894E-1,-5.884654E-1,3.5784632E-1,-8.519946E-2,-7.090189E-1,6.896551E-1,-1.8740965E-1],"categories":[],"categories_nodes":[],"categories_segments":[],"categories_sizes":[],"default_left":[1,0,1,1,1,0,0,0,0],"id":92,"left_children":[1,-1,3,5,7,-1,-1,-1,-1],"loss_changes":[1.2343392E0,0E0,2.0256662E0,2.5840986E-1,8.6926574E-1,0E0,0E0,0E0,0E0],"parents":[2147483647,0,0,2,2,3,3,4,4],"right_children":[2,-1,4,6,8,-1,-1,-1,-1],"split_conditions":[-5.665666E-1,5.219195E-2,3.8515323E-1,-3.4392446E-1,6.910602E-1,-7.028956E-3,-5.849406E-2,5.689655E-2,-1.5461297E-2],"split_indices":[8,0,15,5,7,0,0,0,0],"split_type":[0,0,0,0,0,0,0,0,0],"sum_hessian":[8.643106E0,1.297905E0,7.3452015E0,4.254914E0,3.0902874E0,1.1520927E0,3.1028214E0,1.756539E0,1.3337485E0],"tree_param":{"num_deleted":"0","num_feature":"53","num_nodes":"9","size_leaf_vector":"0"}},{"base_weights":[-1.07790075E-1,3.9923295E-1,-2.2962785E-1,1.231618E-1,-4.856581E-1,6.2509274E-1,-2.965121E-1,-6.027331E-1,-5.0950587E-2],"categories":[],"categories_nodes":[],"categories_segments":[],"categories_sizes":[],"default_left":[1,0,1,1,1,0,0,0,0],"id":93,"left_children":[1,-1,3,5,7,-1,-1,-1,-1],"loss_changes":[6.3474363E-1,0E0,7.5737154E-1,1.0374997E0,2.0733714E-1,0E0,0E0,0E0,0E0],"parents":[2147483647,0,0,2,2,3,3,4,4],"right_children":[2,-1,4,6,8,-1,-1,-1,-1],"split_conditions":[-8.1410265E-1,3.293672E-2,-3.8839817E-2,1.9932453E-1,2.0363474E-1,5.1570155E-2,-2.446225E-2,-4.972548E-2,-4.2034234E-3],"split_indices":[23,0,26,35,41,0,0,0,0],"split_type":[0,0,0,0,0,0,0,0,0],"sum_hessian":[7.791136E0,1.0683756E0,6.72276E0,3.0453973E0,3.6773632E0,1.163899E0,1.8814983E0,2.5926008E0,1.0847622E0],"tree_param":{"num_deleted":"0","num_feature":"53","num_nodes":"9","size_leaf_vector":"0"}},{"base_weights":[-1.1210744E-1,3.437798E-1,-3.5870305E-1,-1.9539072E-1,6.784275E-1,-6.652635E-1,1.0522385E-1,-8.07042E-1,-2.0904785E-1,-3.090518E-1,5.247442E-1],"categories":[],"categories_nodes":[],"categories_segments":[],"categories_sizes":[],"default_left":[1,1,1,0,0,1,1,0,0,0,0],"id":94,"left_children":[1,3,5,-1,-1,7,9,-1,-1,-1,-1],"loss_changes":[1.139721E0,7.9733944E-1,9.7407377E-1,0E0,0E0,8.769536E-2,7.5180763E-1,0E0,0E0,0E0,0E0],"parents":[2147483647,0,0,1,1,2,2,5,5,6,6],"right_children":[2,4,6,-1,-1,8,10,-1,-1,-1,-1],"split_conditions":[8.045385E-3,-5.8093596E-1,1.7134403E-1,-1.6119735E-2,5.5970274E-2,-1.3814008E-1,8.341125E-2,-6.6580966E-2,-1.724645E-2,-2.5496775E-2,4.32914E-2],"split_indices":[49,17,21,0,0,2,35,0,0,0,0],"split_type":[0,0,0,0,0,0,0,0,0,0,0],"sum_hessian":[8.041167E0,2.6843822E0,5.356785E0,1.1874087E0,1.4969735E0,2.9641242E0,2.3926609E0,1.6746875E0,1.2894366E0,1.3363442E0,1.0563167E0],"tree_param":{"num_deleted":"0","num_feature":"53","num_nodes":"11","size_leaf_vector":"0"}},{"base_weights":[-1.974551E-1,-3.541801E-1,2.5929552E-1,1.3574293E-1,-5.4725814E-1,-1.4064156E-1,-7.0460343E-1],"categories":[],"categories_nodes":[],"categories_segments":[],"categories_sizes":[],"default_left":[1,1,0,0,1,0,0],"id":95,"left_children":[1,3,-1,-1,5,-1,-1],"loss_changes":[7.53811E-1,7.6554495E-1,0E0,0E0,2.489897E-1,0E0,0E0],"parents":[2147483647,0,0,1,1,4,4],"right_children":[2,4,-1,-1,6,-1,-1],"split_conditions":[4.497016E-1,-2.9250056E-2,2.1391882E-2,1.1198793E-2,-9.738183E-2,-1.1602929E-2,-5.8129787E-2],"split_indices":[22,35,0,0,51,0,0],"split_type":[0,0,0,0,0,0,0],"sum_hessian":[8.247477E0,6.3076844E0,1.9397925E0,1.8670694E0,4.440615E0,1.7673125E0,2.6733027E0],"tree_param":{"num_deleted":"0","num_feature":"53","num_nodes":"7","size_leaf_vector":"0"}},{"base_weights":[6.490947E-2,-3.104343E-1,3.02585E-1,1.2712088E-1,-5.746735E-1,-9.78538E-2,7.2657436E-1,-3.6406192E-1,2.3274058E-1],"categories":[],"categories_nodes":[],"categories_segments":[],"categories_sizes":[],"default_left":[1,1,1,0,0,1,0,0,0],"id":96,"left_children":[1,3,5,-1,-1,7,-1,-1,-1],"loss_changes":[7.8711236E-1,4.784376E-1,9.648284E-1,0E0,0E0,4.0054387E-1,0E0,0E0,0E0],"parents":[2147483647,0,0,1,1,2,2,5,5],"right_children":[2,4,6,-1,-1,8,-1,-1,-1],"split_conditions":[-3.1058398E-1,1.57498E-1,-9.467823E-3,1.0487474E-2,-4.7410563E-2,1.0179031E-1,5.9942387E-2,-3.003511E-2,1.9201098E-2],"split_indices":[0,26,26,0,0,28,0,0,0],"split_type":[0,0,0,0,0,0,0,0,0],"sum_hessian":[6.7701983E0,2.5062044E0,4.263994E0,1.1390169E0,1.3671875E0,2.5884895E0,1.6755046E0,1.3777966E0,1.2106928E0],"tree_param":{"num_deleted":"0","num_feature":"53","num_nodes":"9","size_leaf_vector":"0"}},{"base_weights":[-1.8133882E-1,5.541032E-1,-3.5513592E-1,-5.565909E-1,2.1617138E-1,-6.65963E-1,-3.4112513E-2],"categories":[],"categories_nodes":[],"categories_segments":[],"categories_sizes":[],"default_left":[1,0,1,1,0,0,0],"id":97,"left_children":[1,-1,3,5,-1,-1,-1],"loss_changes":[1.277338E0,0E0,9.774579E-1,3.07899E-1,0E0,0E0,0E0],"parents":[2147483647,0,0,2,2,3,3],"right_children":[2,-1,4,6,-1,-1,-1],"split_conditions":[-4.2802042E-1,4.5713514E-2,4.5836663E-1,5.462234E-1,1.783414E-2,-5.494195E-2,-2.8142824E-3],"split_indices":[49,0,51,31,0,0,0],"split_type":[0,0,0,0,0,0,0],"sum_hessian":[7.4538856E0,1.0065094E0,6.4473763E0,4.7856236E0,1.6617526E0,3.7301552E0,1.0554683E0],"tree_param":{"num_deleted":"0","num_feature":"53","num_nodes":"7","size_leaf_vector":"0"}},{"base_weights":[-5.9108388E-2,2.303762E-1,-2.9288894E-1,-4.1449632E-2,5.272603E-1,2.2566174E-1,-5.0563985E-1,3.1703582E-1,-3.8090435E-1,-7.689532E-1,-6.2378924E-2],"categories":[],"categories_nodes":[],"categories_segments":[],"categories_sizes":[],"default_left":[1,1,1,1,0,0,1,0,0,0,0],"id":98,"left_children":[1,3,5,7,-1,-1,9,-1,-1,-1,-1],"loss_changes":[6.002945E-1,3.5089E-1,6.431963E-1,4.9258935E-1,0E0,0E0,3.8496292E-1,0E0,0E0,0E0,0E0],"parents":[2147483647,0,0,1,1,2,2,3,3,6,6],"right_children":[2,4,6,8,-1,-1,10,-1,-1,-1,-1],"split_conditions":[-7.456596E-2,2.0986304E-1,-2.4166626E-1,2.7871054E-1,4.3498978E-2,1.8617094E-2,-1.2064641E-2,2.6155457E-2,-3.1424608E-2,-6.343864E-2,-5.1462613E-3],"split_indices":[26,28,16,32,0,0,44,0,0,0,0],"split_type":[0,0,0,0,0,0,0,0,0,0,0],"sum_hessian":[6.8731136E0,3.077225E0,3.7958884E0,2.0555534E0,1.0216715E0,1.0866488E0,2.7092395E0,1.0318738E0,1.0236797E0,1.2386636E0,1.4705759E0],"tree_param":{"num_deleted":"0","num_feature":"53","num_nodes":"11","size_leaf_vector":"0"}},{"base_weights":[-3.978137E-3,5.349238E-1,-2.580958E-1,7.1226007E-1,7.9420075E-2,-5.897349E-1,-1.3263931E-3,-7.169254E-1,-1.6783997E-1,-3.8870808E-1,5.1033795E-1],"categories":[],"categories_nodes":[],"categories_segments":[],"categories_sizes":[],"default_left":[1,1,1,0,0,1,1,0,0,0,0],"id":99,"left_children":[1,3,5,-1,-1,7,9,-1,-1,-1,-1],"loss_changes":[1.4363878E0,2.1512496E-1,6.0528123E-1,0E0,0E0,4.6210766E-2,1.1921258E0,0E0,0E0,0E0,0E0],"parents":[2147483647,0,0,1,1,2,2,5,5,6,6],"right_children":[2,4,6,-1,-1,8,10,-1,-1,-1,-1],"split_conditions":[-9.3461126E-2,1.7843878E-1,-1.3861157E-2,5.876146E-2,6.5521565E-3,2.2842824E-1,-3.3108693E-1,-5.9146345E-2,-1.3846799E-2,-3.2068416E-2,4.210288E-2],"split_indices":[26,35,26,0,0,49,4,0,0,0,0],"split_type":[0,0,0,0,0,0,0,0,0,0,0],"sum_hessian":[8.480676E0,2.3634768E0,6.117199E0,1.2954555E0,1.0680213E0,2.1035452E0,4.0136538E0,1.0789664E0,1.0245789E0,2.4210103E0,1.5926434E0],"tree_param":{"num_deleted":"0","num_feature":"53","num_nodes":"11","size_leaf_vector":"0"}},{"base_weights":[-4.558292E-2,3.3196333E-1,-3.1229472E-1,-1.8382373E-1,5.9762746E-1,4.4147156E-2,-5.211832E-1,-3.726071E-1,4.1477117E-1,-6.929546E-1,-6.0106244E-2],"categories":[],"categories_nodes":[],"categories_segments":[],"categories_sizes":[],"default_left":[1,1,1,0,0,1,1,0,0,0,0],"id":100,"left_children":[1,3,5,-1,-1,7,9,-1,-1,-1,-1],"loss_changes":[1.0637228E0,7.1711886E-1,4.7737634E-1,0E0,0E0,6.4522505E-1,2.692634E-1,0E0,0E0,0E0,0E0],"parents":[2147483647,0,0,1,1,2,2,5,5,6,6],"right_children":[2,4,6,-1,-1,8,10,-1,-1,-1,-1],"split_conditions":[7.870188E-3,-5.55068E-1,3.2526302E-1,-1.5165458E-2,4.930427E-2,2.5710577E-1,9.42968E-2,-3.0740088E-2,3.4218624E-2,-5.7168756E-2,-4.958765E-3],"split_indices":[49,51,6,0,0,49,41,0,0,0,0],"split_type":[0,0,0,0,0,0,0,0,0,0,0],"sum_hessian":[8.534163E0,3.4317157E0,5.1024475E0,1.2713835E0,2.1603322E0,2.1767516E0,2.9256957E0,1.0220923E0,1.1546593E0,1.7651831E0,1.1605126E0],"tree_param":{"num_deleted":"0","num_feature":"53","num_nodes":"11","size_leaf_vector":"0"}},{"base_weights":[-7.9868466E-2,9.8396555E-2,-4.77579E-1,3.8030478E-1,-3.0771843E-1,3.900914E-2,5.8913213E-1,-6.209464E-1,1.7964852E-1],"categories":[],"categories_nodes":[],"categories_segments":[],"categories_sizes":[],"default_left":[1,1,0,1,1,0,0,0,0],"id":101,"left_children":[1,3,-1,5,7,-1,-1,-1,-1],"loss_changes":[6.3001287E-1,8.620412E-1,0E0,2.82656E-1,6.029658E-1,0E0,0E0,0E0,0E0],"parents":[2147483647,0,0,1,1,3,3,4,4],"right_children":[2,4,-1,6,8,-1,-1,-1,-1],"split_conditions":[1.8350758E-1,7.244018E-2,-3.940027E-2,-1.23467565E-1,1.9470552E-1,3.218254E-3,4.8603404E-2,-5.122808E-2,1.4821003E-2],"split_indices":[26,3,0,3,3,0,0,0,0],"split_type":[0,0,0,0,0,0,0,0,0],"sum_hessian":[7.2233877E0,5.507406E0,1.7159814E0,3.2883344E0,2.2190719E0,1.6987668E0,1.5895677E0,1.184023E0,1.0350487E0],"tree_param":{"num_deleted":"0","num_feature":"53","num_nodes":"9","size_leaf_vector":"0"}},{"base_weights":[-1.2287825E-1,-5.434479E-1,1.7946663E-1,-7.382427E-1,-7.2139665E-2,4.4636247E-1,-2.8559262E-1,1.264358E-1,6.818877E-1],"categories":[],"categories_nodes":[],"categories_segments":[],"categories_sizes":[],